digraph Tree {
node [shape=box, style="filled", color="black", fontname="helvetica"] ;
edge [fontname="helvetica"] ;
0 [label="Previous Grades <= 720.5\ngini = 0.5\nsamples = 20973\nvalue = [10488, 10485]\nclass = 0", fillcolor="#ffffff"] ;
1 [label="Study Hours per Week <= 44.5\ngini = 0.5\nsamples = 20358\nvalue = [10147, 10211]\nclass = 1", fillcolor="#fefeff"] ;
0 -> 1 [labeldistance=2.5, labelangle=45, headlabel="True"] ;
2 [label="Attendance Rate <= 852.5\ngini = 0.499\nsamples = 2327\nvalue = [1100, 1227]\nclass = 1", fillcolor="#ebf5fc"] ;
1 -> 2 ;
3 [label="Study Hours per Week <= 40.5\ngini = 0.498\nsamples = 2321\nvalue = [1094, 1227]\nclass = 1", fillcolor="#eaf4fc"] ;
2 -> 3 ;
4 [label="Attendance Rate <= 838.5\ngini = 0.499\nsamples = 1987\nvalue = [958, 1029]\nclass = 1", fillcolor="#f1f8fd"] ;
3 -> 4 ;
5 [label="Previous Grades <= 409.5\ngini = 0.5\nsamples = 1964\nvalue = [952, 1012]\nclass = 1", fillcolor="#f3f9fd"] ;
4 -> 5 ;
6 [label="Previous Grades <= 401.5\ngini = 0.5\nsamples = 753\nvalue = [387, 366]\nclass = 0", fillcolor="#fef8f4"] ;
5 -> 6 ;
7 [label="Attendance Rate <= 693.0\ngini = 0.5\nsamples = 720\nvalue = [362, 358]\nclass = 0", fillcolor="#fffefd"] ;
6 -> 7 ;
8 [label="Attendance Rate <= 687.5\ngini = 0.498\nsamples = 530\nvalue = [281, 249]\nclass = 0", fillcolor="#fcf1e8"] ;
7 -> 8 ;
9 [label="Attendance Rate <= 205.5\ngini = 0.499\nsamples = 523\nvalue = [274, 249]\nclass = 0", fillcolor="#fdf4ed"] ;
8 -> 9 ;
10 [label="Previous Grades <= 252.0\ngini = 0.36\nsamples = 17\nvalue = [13, 4]\nclass = 0", fillcolor="#eda876"] ;
9 -> 10 ;
11 [label="Attendance Rate <= 183.0\ngini = 0.375\nsamples = 4\nvalue = [1, 3]\nclass = 1", fillcolor="#7bbeee"] ;
10 -> 11 ;
12 [label="gini = 0.0\nsamples = 3\nvalue = [0, 3]\nclass = 1", fillcolor="#399de5"] ;
11 -> 12 ;
13 [label="gini = 0.0\nsamples = 1\nvalue = [1, 0]\nclass = 0", fillcolor="#e58139"] ;
11 -> 13 ;
14 [label="Previous Grades <= 295.0\ngini = 0.142\nsamples = 13\nvalue = [12, 1]\nclass = 0", fillcolor="#e78c49"] ;
10 -> 14 ;
15 [label="Previous Grades <= 270.0\ngini = 0.444\nsamples = 3\nvalue = [2, 1]\nclass = 0", fillcolor="#f2c09c"] ;
14 -> 15 ;
16 [label="gini = 0.0\nsamples = 2\nvalue = [2, 0]\nclass = 0", fillcolor="#e58139"] ;
15 -> 16 ;
17 [label="gini = 0.0\nsamples = 1\nvalue = [0, 1]\nclass = 1", fillcolor="#399de5"] ;
15 -> 17 ;
18 [label="gini = 0.0\nsamples = 10\nvalue = [10, 0]\nclass = 0", fillcolor="#e58139"] ;
14 -> 18 ;
19 [label="Parent Education Level <= 0.5\ngini = 0.5\nsamples = 506\nvalue = [261, 245]\nclass = 0", fillcolor="#fdf7f3"] ;
9 -> 19 ;
20 [label="Previous Grades <= 388.5\ngini = 0.489\nsamples = 89\nvalue = [38, 51]\nclass = 1", fillcolor="#cde6f8"] ;
19 -> 20 ;
21 [label="Previous Grades <= 250.5\ngini = 0.482\nsamples = 84\nvalue = [34, 50]\nclass = 1", fillcolor="#c0e0f7"] ;
20 -> 21 ;
22 [label="Previous Grades <= 145.0\ngini = 0.488\nsamples = 19\nvalue = [11, 8]\nclass = 0", fillcolor="#f8ddc9"] ;
21 -> 22 ;
23 [label="Study Hours per Week <= 18.0\ngini = 0.408\nsamples = 7\nvalue = [2, 5]\nclass = 1", fillcolor="#88c4ef"] ;
22 -> 23 ;
24 [label="gini = 0.0\nsamples = 1\nvalue = [1, 0]\nclass = 0", fillcolor="#e58139"] ;
23 -> 24 ;
25 [label="Attendance Rate <= 508.0\ngini = 0.278\nsamples = 6\nvalue = [1, 5]\nclass = 1", fillcolor="#61b1ea"] ;
23 -> 25 ;
26 [label="Attendance Rate <= 341.0\ngini = 0.5\nsamples = 2\nvalue = [1, 1]\nclass = 0", fillcolor="#ffffff"] ;
25 -> 26 ;
27 [label="gini = 0.0\nsamples = 1\nvalue = [0, 1]\nclass = 1", fillcolor="#399de5"] ;
26 -> 27 ;
28 [label="gini = 0.0\nsamples = 1\nvalue = [1, 0]\nclass = 0", fillcolor="#e58139"] ;
26 -> 28 ;
29 [label="gini = 0.0\nsamples = 4\nvalue = [0, 4]\nclass = 1", fillcolor="#399de5"] ;
25 -> 29 ;
30 [label="Attendance Rate <= 658.0\ngini = 0.375\nsamples = 12\nvalue = [9, 3]\nclass = 0", fillcolor="#eeab7b"] ;
22 -> 30 ;
31 [label="Participation in Extracurricular Activities <= 0.5\ngini = 0.298\nsamples = 11\nvalue = [9, 2]\nclass = 0", fillcolor="#eb9d65"] ;
30 -> 31 ;
32 [label="gini = 0.0\nsamples = 5\nvalue = [5, 0]\nclass = 0", fillcolor="#e58139"] ;
31 -> 32 ;
33 [label="Attendance Rate <= 604.0\ngini = 0.444\nsamples = 6\nvalue = [4, 2]\nclass = 0", fillcolor="#f2c09c"] ;
31 -> 33 ;
34 [label="Study Hours per Week <= 25.0\ngini = 0.5\nsamples = 4\nvalue = [2, 2]\nclass = 0", fillcolor="#ffffff"] ;
33 -> 34 ;
35 [label="gini = 0.0\nsamples = 2\nvalue = [2, 0]\nclass = 0", fillcolor="#e58139"] ;
34 -> 35 ;
36 [label="gini = 0.0\nsamples = 2\nvalue = [0, 2]\nclass = 1", fillcolor="#399de5"] ;
34 -> 36 ;
37 [label="gini = 0.0\nsamples = 2\nvalue = [2, 0]\nclass = 0", fillcolor="#e58139"] ;
33 -> 37 ;
38 [label="gini = 0.0\nsamples = 1\nvalue = [0, 1]\nclass = 1", fillcolor="#399de5"] ;
30 -> 38 ;
39 [label="Previous Grades <= 295.0\ngini = 0.457\nsamples = 65\nvalue = [23, 42]\nclass = 1", fillcolor="#a5d3f3"] ;
21 -> 39 ;
40 [label="Previous Grades <= 279.5\ngini = 0.266\nsamples = 19\nvalue = [3, 16]\nclass = 1", fillcolor="#5eafea"] ;
39 -> 40 ;
41 [label="Previous Grades <= 270.5\ngini = 0.375\nsamples = 12\nvalue = [3, 9]\nclass = 1", fillcolor="#7bbeee"] ;
40 -> 41 ;
42 [label="Study Hours per Week <= 26.5\ngini = 0.198\nsamples = 9\nvalue = [1, 8]\nclass = 1", fillcolor="#52a9e8"] ;
41 -> 42 ;
43 [label="gini = 0.0\nsamples = 7\nvalue = [0, 7]\nclass = 1", fillcolor="#399de5"] ;
42 -> 43 ;
44 [label="Participation in Extracurricular Activities <= 0.5\ngini = 0.5\nsamples = 2\nvalue = [1, 1]\nclass = 0", fillcolor="#ffffff"] ;
42 -> 44 ;
45 [label="gini = 0.0\nsamples = 1\nvalue = [1, 0]\nclass = 0", fillcolor="#e58139"] ;
44 -> 45 ;
46 [label="gini = 0.0\nsamples = 1\nvalue = [0, 1]\nclass = 1", fillcolor="#399de5"] ;
44 -> 46 ;
47 [label="Study Hours per Week <= 16.5\ngini = 0.444\nsamples = 3\nvalue = [2, 1]\nclass = 0", fillcolor="#f2c09c"] ;
41 -> 47 ;
48 [label="gini = 0.0\nsamples = 1\nvalue = [0, 1]\nclass = 1", fillcolor="#399de5"] ;
47 -> 48 ;
49 [label="gini = 0.0\nsamples = 2\nvalue = [2, 0]\nclass = 0", fillcolor="#e58139"] ;
47 -> 49 ;
50 [label="gini = 0.0\nsamples = 7\nvalue = [0, 7]\nclass = 1", fillcolor="#399de5"] ;
40 -> 50 ;
51 [label="Previous Grades <= 310.0\ngini = 0.491\nsamples = 46\nvalue = [20, 26]\nclass = 1", fillcolor="#d1e8f9"] ;
39 -> 51 ;
52 [label="gini = 0.0\nsamples = 5\nvalue = [5, 0]\nclass = 0", fillcolor="#e58139"] ;
51 -> 52 ;
53 [label="Study Hours per Week <= 27.5\ngini = 0.464\nsamples = 41\nvalue = [15, 26]\nclass = 1", fillcolor="#abd6f4"] ;
51 -> 53 ;
54 [label="Participation in Extracurricular Activities <= 0.5\ngini = 0.245\nsamples = 14\nvalue = [2, 12]\nclass = 1", fillcolor="#5aade9"] ;
53 -> 54 ;
55 [label="gini = 0.0\nsamples = 8\nvalue = [0, 8]\nclass = 1", fillcolor="#399de5"] ;
54 -> 55 ;
56 [label="Previous Grades <= 344.0\ngini = 0.444\nsamples = 6\nvalue = [2, 4]\nclass = 1", fillcolor="#9ccef2"] ;
54 -> 56 ;
57 [label="gini = 0.0\nsamples = 1\nvalue = [1, 0]\nclass = 0", fillcolor="#e58139"] ;
56 -> 57 ;
58 [label="Attendance Rate <= 591.5\ngini = 0.32\nsamples = 5\nvalue = [1, 4]\nclass = 1", fillcolor="#6ab6ec"] ;
56 -> 58 ;
59 [label="gini = 0.0\nsamples = 3\nvalue = [0, 3]\nclass = 1", fillcolor="#399de5"] ;
58 -> 59 ;
60 [label="Study Hours per Week <= 21.0\ngini = 0.5\nsamples = 2\nvalue = [1, 1]\nclass = 0", fillcolor="#ffffff"] ;
58 -> 60 ;
61 [label="gini = 0.0\nsamples = 1\nvalue = [1, 0]\nclass = 0", fillcolor="#e58139"] ;
60 -> 61 ;
62 [label="gini = 0.0\nsamples = 1\nvalue = [0, 1]\nclass = 1", fillcolor="#399de5"] ;
60 -> 62 ;
63 [label="Previous Grades <= 341.0\ngini = 0.499\nsamples = 27\nvalue = [13, 14]\nclass = 1", fillcolor="#f1f8fd"] ;
53 -> 63 ;
64 [label="Attendance Rate <= 305.0\ngini = 0.32\nsamples = 10\nvalue = [2, 8]\nclass = 1", fillcolor="#6ab6ec"] ;
63 -> 64 ;
65 [label="gini = 0.0\nsamples = 1\nvalue = [1, 0]\nclass = 0", fillcolor="#e58139"] ;
64 -> 65 ;
66 [label="Previous Grades <= 317.5\ngini = 0.198\nsamples = 9\nvalue = [1, 8]\nclass = 1", fillcolor="#52a9e8"] ;
64 -> 66 ;
67 [label="Previous Grades <= 313.5\ngini = 0.5\nsamples = 2\nvalue = [1, 1]\nclass = 0", fillcolor="#ffffff"] ;
66 -> 67 ;
68 [label="gini = 0.0\nsamples = 1\nvalue = [0, 1]\nclass = 1", fillcolor="#399de5"] ;
67 -> 68 ;
69 [label="gini = 0.0\nsamples = 1\nvalue = [1, 0]\nclass = 0", fillcolor="#e58139"] ;
67 -> 69 ;
70 [label="gini = 0.0\nsamples = 7\nvalue = [0, 7]\nclass = 1", fillcolor="#399de5"] ;
66 -> 70 ;
71 [label="Attendance Rate <= 341.0\ngini = 0.457\nsamples = 17\nvalue = [11, 6]\nclass = 0", fillcolor="#f3c6a5"] ;
63 -> 71 ;
72 [label="gini = 0.0\nsamples = 2\nvalue = [0, 2]\nclass = 1", fillcolor="#399de5"] ;
71 -> 72 ;
73 [label="Previous Grades <= 386.5\ngini = 0.391\nsamples = 15\nvalue = [11, 4]\nclass = 0", fillcolor="#eeaf81"] ;
71 -> 73 ;
74 [label="Attendance Rate <= 512.0\ngini = 0.337\nsamples = 14\nvalue = [11, 3]\nclass = 0", fillcolor="#eca36f"] ;
73 -> 74 ;
75 [label="gini = 0.0\nsamples = 6\nvalue = [6, 0]\nclass = 0", fillcolor="#e58139"] ;
74 -> 75 ;
76 [label="gini = 0.469\nsamples = 8\nvalue = [5, 3]\nclass = 0", fillcolor="#f5cdb0"] ;
74 -> 76 ;
77 [label="gini = 0.0\nsamples = 1\nvalue = [0, 1]\nclass = 1", fillcolor="#399de5"] ;
73 -> 77 ;
78 [label="Attendance Rate <= 613.5\ngini = 0.32\nsamples = 5\nvalue = [4, 1]\nclass = 0", fillcolor="#eca06a"] ;
20 -> 78 ;
79 [label="gini = 0.0\nsamples = 4\nvalue = [4, 0]\nclass = 0", fillcolor="#e58139"] ;
78 -> 79 ;
80 [label="gini = 0.0\nsamples = 1\nvalue = [0, 1]\nclass = 1", fillcolor="#399de5"] ;
78 -> 80 ;
81 [label="Previous Grades <= 261.5\ngini = 0.498\nsamples = 417\nvalue = [223, 194]\nclass = 0", fillcolor="#fcefe5"] ;
19 -> 81 ;
82 [label="Attendance Rate <= 618.5\ngini = 0.496\nsamples = 99\nvalue = [45, 54]\nclass = 1", fillcolor="#deeffb"] ;
81 -> 82 ;
83 [label="Study Hours per Week <= 9.0\ngini = 0.5\nsamples = 85\nvalue = [43, 42]\nclass = 0", fillcolor="#fefcfa"] ;
82 -> 83 ;
84 [label="Participation in Extracurricular Activities <= 0.5\ngini = 0.219\nsamples = 8\nvalue = [7, 1]\nclass = 0", fillcolor="#e99355"] ;
83 -> 84 ;
85 [label="gini = 0.0\nsamples = 6\nvalue = [6, 0]\nclass = 0", fillcolor="#e58139"] ;
84 -> 85 ;
86 [label="Parent Education Level <= 1.5\ngini = 0.5\nsamples = 2\nvalue = [1, 1]\nclass = 0", fillcolor="#ffffff"] ;
84 -> 86 ;
87 [label="gini = 0.0\nsamples = 1\nvalue = [1, 0]\nclass = 0", fillcolor="#e58139"] ;
86 -> 87 ;
88 [label="gini = 0.0\nsamples = 1\nvalue = [0, 1]\nclass = 1", fillcolor="#399de5"] ;
86 -> 88 ;
89 [label="Previous Grades <= 80.0\ngini = 0.498\nsamples = 77\nvalue = [36, 41]\nclass = 1", fillcolor="#e7f3fc"] ;
83 -> 89 ;
90 [label="gini = 0.0\nsamples = 3\nvalue = [0, 3]\nclass = 1", fillcolor="#399de5"] ;
89 -> 90 ;
91 [label="Study Hours per Week <= 21.5\ngini = 0.5\nsamples = 74\nvalue = [36, 38]\nclass = 1", fillcolor="#f5fafe"] ;
89 -> 91 ;
92 [label="Attendance Rate <= 582.5\ngini = 0.408\nsamples = 14\nvalue = [4, 10]\nclass = 1", fillcolor="#88c4ef"] ;
91 -> 92 ;
93 [label="Previous Grades <= 112.0\ngini = 0.355\nsamples = 13\nvalue = [3, 10]\nclass = 1", fillcolor="#74baed"] ;
92 -> 93 ;
94 [label="gini = 0.0\nsamples = 1\nvalue = [1, 0]\nclass = 0", fillcolor="#e58139"] ;
93 -> 94 ;
95 [label="Study Hours per Week <= 19.5\ngini = 0.278\nsamples = 12\nvalue = [2, 10]\nclass = 1", fillcolor="#61b1ea"] ;
93 -> 95 ;
96 [label="Parent Education Level <= 2.5\ngini = 0.444\nsamples = 6\nvalue = [2, 4]\nclass = 1", fillcolor="#9ccef2"] ;
95 -> 96 ;
97 [label="gini = 0.0\nsamples = 3\nvalue = [0, 3]\nclass = 1", fillcolor="#399de5"] ;
96 -> 97 ;
98 [label="gini = 0.444\nsamples = 3\nvalue = [2, 1]\nclass = 0", fillcolor="#f2c09c"] ;
96 -> 98 ;
99 [label="gini = 0.0\nsamples = 6\nvalue = [0, 6]\nclass = 1", fillcolor="#399de5"] ;
95 -> 99 ;
100 [label="gini = 0.0\nsamples = 1\nvalue = [1, 0]\nclass = 0", fillcolor="#e58139"] ;
92 -> 100 ;
101 [label="Parent Education Level <= 2.5\ngini = 0.498\nsamples = 60\nvalue = [32, 28]\nclass = 0", fillcolor="#fcefe6"] ;
91 -> 101 ;
102 [label="Attendance Rate <= 561.5\ngini = 0.453\nsamples = 26\nvalue = [17, 9]\nclass = 0", fillcolor="#f3c4a2"] ;
101 -> 102 ;
103 [label="Study Hours per Week <= 28.5\ngini = 0.332\nsamples = 19\nvalue = [15, 4]\nclass = 0", fillcolor="#eca36e"] ;
102 -> 103 ;
104 [label="Participation in Extracurricular Activities <= 0.5\ngini = 0.49\nsamples = 7\nvalue = [4, 3]\nclass = 0", fillcolor="#f8e0ce"] ;
103 -> 104 ;
105 [label="gini = 0.0\nsamples = 4\nvalue = [4, 0]\nclass = 0", fillcolor="#e58139"] ;
104 -> 105 ;
106 [label="gini = 0.0\nsamples = 3\nvalue = [0, 3]\nclass = 1", fillcolor="#399de5"] ;
104 -> 106 ;
107 [label="Previous Grades <= 191.0\ngini = 0.153\nsamples = 12\nvalue = [11, 1]\nclass = 0", fillcolor="#e78c4b"] ;
103 -> 107 ;
108 [label="gini = 0.32\nsamples = 5\nvalue = [4, 1]\nclass = 0", fillcolor="#eca06a"] ;
107 -> 108 ;
109 [label="gini = 0.0\nsamples = 7\nvalue = [7, 0]\nclass = 0", fillcolor="#e58139"] ;
107 -> 109 ;
110 [label="Attendance Rate <= 581.5\ngini = 0.408\nsamples = 7\nvalue = [2, 5]\nclass = 1", fillcolor="#88c4ef"] ;
102 -> 110 ;
111 [label="gini = 0.0\nsamples = 4\nvalue = [0, 4]\nclass = 1", fillcolor="#399de5"] ;
110 -> 111 ;
112 [label="Attendance Rate <= 598.5\ngini = 0.444\nsamples = 3\nvalue = [2, 1]\nclass = 0", fillcolor="#f2c09c"] ;
110 -> 112 ;
113 [label="gini = 0.0\nsamples = 2\nvalue = [2, 0]\nclass = 0", fillcolor="#e58139"] ;
112 -> 113 ;
114 [label="gini = 0.0\nsamples = 1\nvalue = [0, 1]\nclass = 1", fillcolor="#399de5"] ;
112 -> 114 ;
115 [label="Attendance Rate <= 526.5\ngini = 0.493\nsamples = 34\nvalue = [15, 19]\nclass = 1", fillcolor="#d5eafa"] ;
101 -> 115 ;
116 [label="Attendance Rate <= 495.0\ngini = 0.454\nsamples = 23\nvalue = [8, 15]\nclass = 1", fillcolor="#a3d1f3"] ;
115 -> 116 ;
117 [label="Study Hours per Week <= 37.5\ngini = 0.494\nsamples = 18\nvalue = [8, 10]\nclass = 1", fillcolor="#d7ebfa"] ;
116 -> 117 ;
118 [label="gini = 0.5\nsamples = 16\nvalue = [8, 8]\nclass = 0", fillcolor="#ffffff"] ;
117 -> 118 ;
119 [label="gini = 0.0\nsamples = 2\nvalue = [0, 2]\nclass = 1", fillcolor="#399de5"] ;
117 -> 119 ;
120 [label="gini = 0.0\nsamples = 5\nvalue = [0, 5]\nclass = 1", fillcolor="#399de5"] ;
116 -> 120 ;
121 [label="Previous Grades <= 184.5\ngini = 0.463\nsamples = 11\nvalue = [7, 4]\nclass = 0", fillcolor="#f4c9aa"] ;
115 -> 121 ;
122 [label="gini = 0.0\nsamples = 3\nvalue = [3, 0]\nclass = 0", fillcolor="#e58139"] ;
121 -> 122 ;
123 [label="Previous Grades <= 219.0\ngini = 0.5\nsamples = 8\nvalue = [4, 4]\nclass = 0", fillcolor="#ffffff"] ;
121 -> 123 ;
124 [label="gini = 0.0\nsamples = 3\nvalue = [0, 3]\nclass = 1", fillcolor="#399de5"] ;
123 -> 124 ;
125 [label="gini = 0.32\nsamples = 5\nvalue = [4, 1]\nclass = 0", fillcolor="#eca06a"] ;
123 -> 125 ;
126 [label="Previous Grades <= 193.5\ngini = 0.245\nsamples = 14\nvalue = [2, 12]\nclass = 1", fillcolor="#5aade9"] ;
82 -> 126 ;
127 [label="Study Hours per Week <= 32.5\ngini = 0.48\nsamples = 5\nvalue = [2, 3]\nclass = 1", fillcolor="#bddef6"] ;
126 -> 127 ;
128 [label="Study Hours per Week <= 15.0\ngini = 0.444\nsamples = 3\nvalue = [2, 1]\nclass = 0", fillcolor="#f2c09c"] ;
127 -> 128 ;
129 [label="gini = 0.0\nsamples = 1\nvalue = [0, 1]\nclass = 1", fillcolor="#399de5"] ;
128 -> 129 ;
130 [label="gini = 0.0\nsamples = 2\nvalue = [2, 0]\nclass = 0", fillcolor="#e58139"] ;
128 -> 130 ;
131 [label="gini = 0.0\nsamples = 2\nvalue = [0, 2]\nclass = 1", fillcolor="#399de5"] ;
127 -> 131 ;
132 [label="gini = 0.0\nsamples = 9\nvalue = [0, 9]\nclass = 1", fillcolor="#399de5"] ;
126 -> 132 ;
133 [label="Attendance Rate <= 527.5\ngini = 0.493\nsamples = 318\nvalue = [178, 140]\nclass = 0", fillcolor="#f9e4d5"] ;
81 -> 133 ;
134 [label="Previous Grades <= 282.5\ngini = 0.5\nsamples = 168\nvalue = [85, 83]\nclass = 0", fillcolor="#fefcfa"] ;
133 -> 134 ;
135 [label="Attendance Rate <= 498.5\ngini = 0.388\nsamples = 19\nvalue = [14, 5]\nclass = 0", fillcolor="#eeae80"] ;
134 -> 135 ;
136 [label="Study Hours per Week <= 14.5\ngini = 0.231\nsamples = 15\nvalue = [13, 2]\nclass = 0", fillcolor="#e99457"] ;
135 -> 136 ;
137 [label="Previous Grades <= 274.5\ngini = 0.48\nsamples = 5\nvalue = [3, 2]\nclass = 0", fillcolor="#f6d5bd"] ;
136 -> 137 ;
138 [label="Attendance Rate <= 462.5\ngini = 0.444\nsamples = 3\nvalue = [1, 2]\nclass = 1", fillcolor="#9ccef2"] ;
137 -> 138 ;
139 [label="gini = 0.0\nsamples = 2\nvalue = [0, 2]\nclass = 1", fillcolor="#399de5"] ;
138 -> 139 ;
140 [label="gini = 0.0\nsamples = 1\nvalue = [1, 0]\nclass = 0", fillcolor="#e58139"] ;
138 -> 140 ;
141 [label="gini = 0.0\nsamples = 2\nvalue = [2, 0]\nclass = 0", fillcolor="#e58139"] ;
137 -> 141 ;
142 [label="gini = 0.0\nsamples = 10\nvalue = [10, 0]\nclass = 0", fillcolor="#e58139"] ;
136 -> 142 ;
143 [label="Study Hours per Week <= 28.0\ngini = 0.375\nsamples = 4\nvalue = [1, 3]\nclass = 1", fillcolor="#7bbeee"] ;
135 -> 143 ;
144 [label="gini = 0.0\nsamples = 3\nvalue = [0, 3]\nclass = 1", fillcolor="#399de5"] ;
143 -> 144 ;
145 [label="gini = 0.0\nsamples = 1\nvalue = [1, 0]\nclass = 0", fillcolor="#e58139"] ;
143 -> 145 ;
146 [label="Attendance Rate <= 521.5\ngini = 0.499\nsamples = 149\nvalue = [71, 78]\nclass = 1", fillcolor="#edf6fd"] ;
134 -> 146 ;
147 [label="Parent Education Level <= 2.5\ngini = 0.5\nsamples = 143\nvalue = [70, 73]\nclass = 1", fillcolor="#f7fbfe"] ;
146 -> 147 ;
148 [label="Previous Grades <= 359.0\ngini = 0.488\nsamples = 76\nvalue = [32, 44]\nclass = 1", fillcolor="#c9e4f8"] ;
147 -> 148 ;
149 [label="Previous Grades <= 342.5\ngini = 0.411\nsamples = 38\nvalue = [11, 27]\nclass = 1", fillcolor="#8ac5f0"] ;
148 -> 149 ;
150 [label="Previous Grades <= 299.5\ngini = 0.458\nsamples = 31\nvalue = [11, 20]\nclass = 1", fillcolor="#a6d3f3"] ;
149 -> 150 ;
151 [label="Attendance Rate <= 490.5\ngini = 0.18\nsamples = 10\nvalue = [1, 9]\nclass = 1", fillcolor="#4fa8e8"] ;
150 -> 151 ;
152 [label="gini = 0.0\nsamples = 9\nvalue = [0, 9]\nclass = 1", fillcolor="#399de5"] ;
151 -> 152 ;
153 [label="gini = 0.0\nsamples = 1\nvalue = [1, 0]\nclass = 0", fillcolor="#e58139"] ;
151 -> 153 ;
154 [label="Study Hours per Week <= 8.5\ngini = 0.499\nsamples = 21\nvalue = [10, 11]\nclass = 1", fillcolor="#edf6fd"] ;
150 -> 154 ;
155 [label="gini = 0.0\nsamples = 3\nvalue = [0, 3]\nclass = 1", fillcolor="#399de5"] ;
154 -> 155 ;
156 [label="gini = 0.494\nsamples = 18\nvalue = [10, 8]\nclass = 0", fillcolor="#fae6d7"] ;
154 -> 156 ;
157 [label="gini = 0.0\nsamples = 7\nvalue = [0, 7]\nclass = 1", fillcolor="#399de5"] ;
149 -> 157 ;
158 [label="Attendance Rate <= 443.5\ngini = 0.494\nsamples = 38\nvalue = [21, 17]\nclass = 0", fillcolor="#fae7d9"] ;
148 -> 158 ;
159 [label="Previous Grades <= 379.0\ngini = 0.483\nsamples = 22\nvalue = [9, 13]\nclass = 1", fillcolor="#c2e1f7"] ;
158 -> 159 ;
160 [label="Study Hours per Week <= 6.5\ngini = 0.486\nsamples = 12\nvalue = [7, 5]\nclass = 0", fillcolor="#f8dbc6"] ;
159 -> 160 ;
161 [label="gini = 0.375\nsamples = 4\nvalue = [1, 3]\nclass = 1", fillcolor="#7bbeee"] ;
160 -> 161 ;
162 [label="gini = 0.375\nsamples = 8\nvalue = [6, 2]\nclass = 0", fillcolor="#eeab7b"] ;
160 -> 162 ;
163 [label="Attendance Rate <= 284.5\ngini = 0.32\nsamples = 10\nvalue = [2, 8]\nclass = 1", fillcolor="#6ab6ec"] ;
159 -> 163 ;
164 [label="gini = 0.0\nsamples = 1\nvalue = [1, 0]\nclass = 0", fillcolor="#e58139"] ;
163 -> 164 ;
165 [label="gini = 0.198\nsamples = 9\nvalue = [1, 8]\nclass = 1", fillcolor="#52a9e8"] ;
163 -> 165 ;
166 [label="Attendance Rate <= 500.0\ngini = 0.375\nsamples = 16\nvalue = [12, 4]\nclass = 0", fillcolor="#eeab7b"] ;
158 -> 166 ;
167 [label="Study Hours per Week <= 4.0\ngini = 0.32\nsamples = 15\nvalue = [12, 3]\nclass = 0", fillcolor="#eca06a"] ;
166 -> 167 ;
168 [label="gini = 0.0\nsamples = 1\nvalue = [0, 1]\nclass = 1", fillcolor="#399de5"] ;
167 -> 168 ;
169 [label="gini = 0.245\nsamples = 14\nvalue = [12, 2]\nclass = 0", fillcolor="#e9965a"] ;
167 -> 169 ;
170 [label="gini = 0.0\nsamples = 1\nvalue = [0, 1]\nclass = 1", fillcolor="#399de5"] ;
166 -> 170 ;
171 [label="Previous Grades <= 351.5\ngini = 0.491\nsamples = 67\nvalue = [38, 29]\nclass = 0", fillcolor="#f9e1d0"] ;
147 -> 171 ;
172 [label="Participation in Extracurricular Activities <= 0.5\ngini = 0.43\nsamples = 32\nvalue = [22, 10]\nclass = 0", fillcolor="#f1ba93"] ;
171 -> 172 ;
173 [label="Previous Grades <= 343.0\ngini = 0.305\nsamples = 16\nvalue = [13, 3]\nclass = 0", fillcolor="#eb9e67"] ;
172 -> 173 ;
174 [label="Study Hours per Week <= 11.0\ngini = 0.231\nsamples = 15\nvalue = [13, 2]\nclass = 0", fillcolor="#e99457"] ;
173 -> 174 ;
175 [label="gini = 0.5\nsamples = 2\nvalue = [1, 1]\nclass = 0", fillcolor="#ffffff"] ;
174 -> 175 ;
176 [label="gini = 0.142\nsamples = 13\nvalue = [12, 1]\nclass = 0", fillcolor="#e78c49"] ;
174 -> 176 ;
177 [label="gini = 0.0\nsamples = 1\nvalue = [0, 1]\nclass = 1", fillcolor="#399de5"] ;
173 -> 177 ;
178 [label="Parent Education Level <= 4.5\ngini = 0.492\nsamples = 16\nvalue = [9, 7]\nclass = 0", fillcolor="#f9e3d3"] ;
172 -> 178 ;
179 [label="Previous Grades <= 330.5\ngini = 0.459\nsamples = 14\nvalue = [9, 5]\nclass = 0", fillcolor="#f3c7a7"] ;
178 -> 179 ;
180 [label="gini = 0.496\nsamples = 11\nvalue = [6, 5]\nclass = 0", fillcolor="#fbeade"] ;
179 -> 180 ;
181 [label="gini = 0.0\nsamples = 3\nvalue = [3, 0]\nclass = 0", fillcolor="#e58139"] ;
179 -> 181 ;
182 [label="gini = 0.0\nsamples = 2\nvalue = [0, 2]\nclass = 1", fillcolor="#399de5"] ;
178 -> 182 ;
183 [label="Previous Grades <= 363.0\ngini = 0.496\nsamples = 35\nvalue = [16, 19]\nclass = 1", fillcolor="#e0f0fb"] ;
171 -> 183 ;
184 [label="Previous Grades <= 353.5\ngini = 0.346\nsamples = 9\nvalue = [2, 7]\nclass = 1", fillcolor="#72b9ec"] ;
183 -> 184 ;
185 [label="Study Hours per Week <= 26.5\ngini = 0.5\nsamples = 4\nvalue = [2, 2]\nclass = 0", fillcolor="#ffffff"] ;
184 -> 185 ;
186 [label="gini = 0.0\nsamples = 2\nvalue = [2, 0]\nclass = 0", fillcolor="#e58139"] ;
185 -> 186 ;
187 [label="gini = 0.0\nsamples = 2\nvalue = [0, 2]\nclass = 1", fillcolor="#399de5"] ;
185 -> 187 ;
188 [label="gini = 0.0\nsamples = 5\nvalue = [0, 5]\nclass = 1", fillcolor="#399de5"] ;
184 -> 188 ;
189 [label="Previous Grades <= 377.5\ngini = 0.497\nsamples = 26\nvalue = [14, 12]\nclass = 0", fillcolor="#fbede3"] ;
183 -> 189 ;
190 [label="Study Hours per Week <= 27.5\ngini = 0.397\nsamples = 11\nvalue = [8, 3]\nclass = 0", fillcolor="#efb083"] ;
189 -> 190 ;
191 [label="gini = 0.5\nsamples = 6\nvalue = [3, 3]\nclass = 0", fillcolor="#ffffff"] ;
190 -> 191 ;
192 [label="gini = 0.0\nsamples = 5\nvalue = [5, 0]\nclass = 0", fillcolor="#e58139"] ;
190 -> 192 ;
193 [label="Previous Grades <= 385.5\ngini = 0.48\nsamples = 15\nvalue = [6, 9]\nclass = 1", fillcolor="#bddef6"] ;
189 -> 193 ;
194 [label="gini = 0.0\nsamples = 4\nvalue = [0, 4]\nclass = 1", fillcolor="#399de5"] ;
193 -> 194 ;
195 [label="gini = 0.496\nsamples = 11\nvalue = [6, 5]\nclass = 0", fillcolor="#fbeade"] ;
193 -> 195 ;
196 [label="Parent Education Level <= 2.5\ngini = 0.278\nsamples = 6\nvalue = [1, 5]\nclass = 1", fillcolor="#61b1ea"] ;
146 -> 196 ;
197 [label="Study Hours per Week <= 16.5\ngini = 0.5\nsamples = 2\nvalue = [1, 1]\nclass = 0", fillcolor="#ffffff"] ;
196 -> 197 ;
198 [label="gini = 0.0\nsamples = 1\nvalue = [1, 0]\nclass = 0", fillcolor="#e58139"] ;
197 -> 198 ;
199 [label="gini = 0.0\nsamples = 1\nvalue = [0, 1]\nclass = 1", fillcolor="#399de5"] ;
197 -> 199 ;
200 [label="gini = 0.0\nsamples = 4\nvalue = [0, 4]\nclass = 1", fillcolor="#399de5"] ;
196 -> 200 ;
201 [label="Attendance Rate <= 554.5\ngini = 0.471\nsamples = 150\nvalue = [93, 57]\nclass = 0", fillcolor="#f5ceb2"] ;
133 -> 201 ;
202 [label="Study Hours per Week <= 11.0\ngini = 0.198\nsamples = 18\nvalue = [16, 2]\nclass = 0", fillcolor="#e89152"] ;
201 -> 202 ;
203 [label="gini = 0.0\nsamples = 1\nvalue = [0, 1]\nclass = 1", fillcolor="#399de5"] ;
202 -> 203 ;
204 [label="Previous Grades <= 376.5\ngini = 0.111\nsamples = 17\nvalue = [16, 1]\nclass = 0", fillcolor="#e78945"] ;
202 -> 204 ;
205 [label="gini = 0.0\nsamples = 13\nvalue = [13, 0]\nclass = 0", fillcolor="#e58139"] ;
204 -> 205 ;
206 [label="Previous Grades <= 381.5\ngini = 0.375\nsamples = 4\nvalue = [3, 1]\nclass = 0", fillcolor="#eeab7b"] ;
204 -> 206 ;
207 [label="gini = 0.0\nsamples = 1\nvalue = [0, 1]\nclass = 1", fillcolor="#399de5"] ;
206 -> 207 ;
208 [label="gini = 0.0\nsamples = 3\nvalue = [3, 0]\nclass = 0", fillcolor="#e58139"] ;
206 -> 208 ;
209 [label="Attendance Rate <= 562.0\ngini = 0.486\nsamples = 132\nvalue = [77, 55]\nclass = 0", fillcolor="#f8dbc6"] ;
201 -> 209 ;
210 [label="gini = 0.0\nsamples = 5\nvalue = [0, 5]\nclass = 1", fillcolor="#399de5"] ;
209 -> 210 ;
211 [label="Previous Grades <= 336.5\ngini = 0.477\nsamples = 127\nvalue = [77, 50]\nclass = 0", fillcolor="#f6d3ba"] ;
209 -> 211 ;
212 [label="Attendance Rate <= 574.5\ngini = 0.365\nsamples = 50\nvalue = [38, 12]\nclass = 0", fillcolor="#eda978"] ;
211 -> 212 ;
213 [label="gini = 0.0\nsamples = 4\nvalue = [0, 4]\nclass = 1", fillcolor="#399de5"] ;
212 -> 213 ;
214 [label="Study Hours per Week <= 10.5\ngini = 0.287\nsamples = 46\nvalue = [38, 8]\nclass = 0", fillcolor="#ea9c63"] ;
212 -> 214 ;
215 [label="Attendance Rate <= 628.0\ngini = 0.375\nsamples = 4\nvalue = [1, 3]\nclass = 1", fillcolor="#7bbeee"] ;
214 -> 215 ;
216 [label="gini = 0.0\nsamples = 3\nvalue = [0, 3]\nclass = 1", fillcolor="#399de5"] ;
215 -> 216 ;
217 [label="gini = 0.0\nsamples = 1\nvalue = [1, 0]\nclass = 0", fillcolor="#e58139"] ;
215 -> 217 ;
218 [label="Study Hours per Week <= 31.5\ngini = 0.21\nsamples = 42\nvalue = [37, 5]\nclass = 0", fillcolor="#e99254"] ;
214 -> 218 ;
219 [label="gini = 0.0\nsamples = 27\nvalue = [27, 0]\nclass = 0", fillcolor="#e58139"] ;
218 -> 219 ;
220 [label="Parent Education Level <= 2.5\ngini = 0.444\nsamples = 15\nvalue = [10, 5]\nclass = 0", fillcolor="#f2c09c"] ;
218 -> 220 ;
221 [label="gini = 0.49\nsamples = 7\nvalue = [3, 4]\nclass = 1", fillcolor="#cee6f8"] ;
220 -> 221 ;
222 [label="gini = 0.219\nsamples = 8\nvalue = [7, 1]\nclass = 0", fillcolor="#e99355"] ;
220 -> 222 ;
223 [label="Attendance Rate <= 587.5\ngini = 0.5\nsamples = 77\nvalue = [39, 38]\nclass = 0", fillcolor="#fefcfa"] ;
211 -> 223 ;
224 [label="Study Hours per Week <= 15.5\ngini = 0.245\nsamples = 14\nvalue = [12, 2]\nclass = 0", fillcolor="#e9965a"] ;
223 -> 224 ;
225 [label="Participation in Extracurricular Activities <= 0.5\ngini = 0.5\nsamples = 4\nvalue = [2, 2]\nclass = 0", fillcolor="#ffffff"] ;
224 -> 225 ;
226 [label="gini = 0.0\nsamples = 2\nvalue = [0, 2]\nclass = 1", fillcolor="#399de5"] ;
225 -> 226 ;
227 [label="gini = 0.0\nsamples = 2\nvalue = [2, 0]\nclass = 0", fillcolor="#e58139"] ;
225 -> 227 ;
228 [label="gini = 0.0\nsamples = 10\nvalue = [10, 0]\nclass = 0", fillcolor="#e58139"] ;
224 -> 228 ;
229 [label="Study Hours per Week <= 9.5\ngini = 0.49\nsamples = 63\nvalue = [27, 36]\nclass = 1", fillcolor="#cee6f8"] ;
223 -> 229 ;
230 [label="gini = 0.0\nsamples = 4\nvalue = [4, 0]\nclass = 0", fillcolor="#e58139"] ;
229 -> 230 ;
231 [label="Attendance Rate <= 642.5\ngini = 0.476\nsamples = 59\nvalue = [23, 36]\nclass = 1", fillcolor="#b8dcf6"] ;
229 -> 231 ;
232 [label="Previous Grades <= 369.0\ngini = 0.328\nsamples = 29\nvalue = [6, 23]\nclass = 1", fillcolor="#6db7ec"] ;
231 -> 232 ;
233 [label="gini = 0.486\nsamples = 12\nvalue = [5, 7]\nclass = 1", fillcolor="#c6e3f8"] ;
232 -> 233 ;
234 [label="gini = 0.111\nsamples = 17\nvalue = [1, 16]\nclass = 1", fillcolor="#45a3e7"] ;
232 -> 234 ;
235 [label="Study Hours per Week <= 33.5\ngini = 0.491\nsamples = 30\nvalue = [17, 13]\nclass = 0", fillcolor="#f9e1d0"] ;
231 -> 235 ;
236 [label="gini = 0.488\nsamples = 19\nvalue = [8, 11]\nclass = 1", fillcolor="#c9e4f8"] ;
235 -> 236 ;
237 [label="gini = 0.298\nsamples = 11\nvalue = [9, 2]\nclass = 0", fillcolor="#eb9d65"] ;
235 -> 237 ;
238 [label="gini = 0.0\nsamples = 7\nvalue = [7, 0]\nclass = 0", fillcolor="#e58139"] ;
8 -> 238 ;
239 [label="Previous Grades <= 355.5\ngini = 0.489\nsamples = 190\nvalue = [81, 109]\nclass = 1", fillcolor="#cce6f8"] ;
7 -> 239 ;
240 [label="Previous Grades <= 347.5\ngini = 0.5\nsamples = 131\nvalue = [64, 67]\nclass = 1", fillcolor="#f6fbfe"] ;
239 -> 240 ;
241 [label="Attendance Rate <= 699.5\ngini = 0.497\nsamples = 122\nvalue = [56, 66]\nclass = 1", fillcolor="#e1f0fb"] ;
240 -> 241 ;
242 [label="gini = 0.0\nsamples = 4\nvalue = [0, 4]\nclass = 1", fillcolor="#399de5"] ;
241 -> 242 ;
243 [label="Attendance Rate <= 702.5\ngini = 0.499\nsamples = 118\nvalue = [56, 62]\nclass = 1", fillcolor="#ecf6fc"] ;
241 -> 243 ;
244 [label="gini = 0.0\nsamples = 4\nvalue = [4, 0]\nclass = 0", fillcolor="#e58139"] ;
243 -> 244 ;
245 [label="Parent Education Level <= 0.5\ngini = 0.496\nsamples = 114\nvalue = [52, 62]\nclass = 1", fillcolor="#dfeffb"] ;
243 -> 245 ;
246 [label="Previous Grades <= 299.5\ngini = 0.375\nsamples = 16\nvalue = [4, 12]\nclass = 1", fillcolor="#7bbeee"] ;
245 -> 246 ;
247 [label="Study Hours per Week <= 8.5\ngini = 0.5\nsamples = 8\nvalue = [4, 4]\nclass = 0", fillcolor="#ffffff"] ;
246 -> 247 ;
248 [label="gini = 0.0\nsamples = 2\nvalue = [2, 0]\nclass = 0", fillcolor="#e58139"] ;
247 -> 248 ;
249 [label="Previous Grades <= 185.5\ngini = 0.444\nsamples = 6\nvalue = [2, 4]\nclass = 1", fillcolor="#9ccef2"] ;
247 -> 249 ;
250 [label="Study Hours per Week <= 15.5\ngini = 0.444\nsamples = 3\nvalue = [2, 1]\nclass = 0", fillcolor="#f2c09c"] ;
249 -> 250 ;
251 [label="gini = 0.0\nsamples = 1\nvalue = [0, 1]\nclass = 1", fillcolor="#399de5"] ;
250 -> 251 ;
252 [label="gini = 0.0\nsamples = 2\nvalue = [2, 0]\nclass = 0", fillcolor="#e58139"] ;
250 -> 252 ;
253 [label="gini = 0.0\nsamples = 3\nvalue = [0, 3]\nclass = 1", fillcolor="#399de5"] ;
249 -> 253 ;
254 [label="gini = 0.0\nsamples = 8\nvalue = [0, 8]\nclass = 1", fillcolor="#399de5"] ;
246 -> 254 ;
255 [label="Previous Grades <= 308.5\ngini = 0.5\nsamples = 98\nvalue = [48, 50]\nclass = 1", fillcolor="#f7fbfe"] ;
245 -> 255 ;
256 [label="Study Hours per Week <= 7.5\ngini = 0.487\nsamples = 69\nvalue = [29, 40]\nclass = 1", fillcolor="#c9e4f8"] ;
255 -> 256 ;
257 [label="Parent Education Level <= 4.5\ngini = 0.18\nsamples = 10\nvalue = [1, 9]\nclass = 1", fillcolor="#4fa8e8"] ;
256 -> 257 ;
258 [label="gini = 0.0\nsamples = 9\nvalue = [0, 9]\nclass = 1", fillcolor="#399de5"] ;
257 -> 258 ;
259 [label="gini = 0.0\nsamples = 1\nvalue = [1, 0]\nclass = 0", fillcolor="#e58139"] ;
257 -> 259 ;
260 [label="Attendance Rate <= 737.5\ngini = 0.499\nsamples = 59\nvalue = [28, 31]\nclass = 1", fillcolor="#ecf6fc"] ;
256 -> 260 ;
261 [label="Attendance Rate <= 732.5\ngini = 0.483\nsamples = 27\nvalue = [16, 11]\nclass = 0", fillcolor="#f7d8c1"] ;
260 -> 261 ;
262 [label="Previous Grades <= 283.0\ngini = 0.499\nsamples = 23\nvalue = [12, 11]\nclass = 0", fillcolor="#fdf5ef"] ;
261 -> 262 ;
263 [label="Parent Education Level <= 2.5\ngini = 0.457\nsamples = 17\nvalue = [11, 6]\nclass = 0", fillcolor="#f3c6a5"] ;
262 -> 263 ;
264 [label="Study Hours per Week <= 32.5\ngini = 0.245\nsamples = 7\nvalue = [6, 1]\nclass = 0", fillcolor="#e9965a"] ;
263 -> 264 ;
265 [label="gini = 0.0\nsamples = 6\nvalue = [6, 0]\nclass = 0", fillcolor="#e58139"] ;
264 -> 265 ;
266 [label="gini = 0.0\nsamples = 1\nvalue = [0, 1]\nclass = 1", fillcolor="#399de5"] ;
264 -> 266 ;
267 [label="Previous Grades <= 135.5\ngini = 0.5\nsamples = 10\nvalue = [5, 5]\nclass = 0", fillcolor="#ffffff"] ;
263 -> 267 ;
268 [label="gini = 0.0\nsamples = 2\nvalue = [2, 0]\nclass = 0", fillcolor="#e58139"] ;
267 -> 268 ;
269 [label="gini = 0.469\nsamples = 8\nvalue = [3, 5]\nclass = 1", fillcolor="#b0d8f5"] ;
267 -> 269 ;
270 [label="Study Hours per Week <= 35.0\ngini = 0.278\nsamples = 6\nvalue = [1, 5]\nclass = 1", fillcolor="#61b1ea"] ;
262 -> 270 ;
271 [label="gini = 0.0\nsamples = 5\nvalue = [0, 5]\nclass = 1", fillcolor="#399de5"] ;
270 -> 271 ;
272 [label="gini = 0.0\nsamples = 1\nvalue = [1, 0]\nclass = 0", fillcolor="#e58139"] ;
270 -> 272 ;
273 [label="gini = 0.0\nsamples = 4\nvalue = [4, 0]\nclass = 0", fillcolor="#e58139"] ;
261 -> 273 ;
274 [label="Study Hours per Week <= 31.0\ngini = 0.469\nsamples = 32\nvalue = [12, 20]\nclass = 1", fillcolor="#b0d8f5"] ;
260 -> 274 ;
275 [label="Attendance Rate <= 747.0\ngini = 0.499\nsamples = 25\nvalue = [12, 13]\nclass = 1", fillcolor="#f0f7fd"] ;
274 -> 275 ;
276 [label="gini = 0.0\nsamples = 3\nvalue = [0, 3]\nclass = 1", fillcolor="#399de5"] ;
275 -> 276 ;
277 [label="Previous Grades <= 205.5\ngini = 0.496\nsamples = 22\nvalue = [12, 10]\nclass = 0", fillcolor="#fbeade"] ;
275 -> 277 ;
278 [label="Parent Education Level <= 1.5\ngini = 0.245\nsamples = 7\nvalue = [6, 1]\nclass = 0", fillcolor="#e9965a"] ;
277 -> 278 ;
279 [label="gini = 0.5\nsamples = 2\nvalue = [1, 1]\nclass = 0", fillcolor="#ffffff"] ;
278 -> 279 ;
280 [label="gini = 0.0\nsamples = 5\nvalue = [5, 0]\nclass = 0", fillcolor="#e58139"] ;
278 -> 280 ;
281 [label="Previous Grades <= 283.0\ngini = 0.48\nsamples = 15\nvalue = [6, 9]\nclass = 1", fillcolor="#bddef6"] ;
277 -> 281 ;
282 [label="gini = 0.397\nsamples = 11\nvalue = [3, 8]\nclass = 1", fillcolor="#83c2ef"] ;
281 -> 282 ;
283 [label="gini = 0.375\nsamples = 4\nvalue = [3, 1]\nclass = 0", fillcolor="#eeab7b"] ;
281 -> 283 ;
284 [label="gini = 0.0\nsamples = 7\nvalue = [0, 7]\nclass = 1", fillcolor="#399de5"] ;
274 -> 284 ;
285 [label="Parent Education Level <= 1.5\ngini = 0.452\nsamples = 29\nvalue = [19, 10]\nclass = 0", fillcolor="#f3c3a1"] ;
255 -> 285 ;
286 [label="gini = 0.0\nsamples = 7\nvalue = [7, 0]\nclass = 0", fillcolor="#e58139"] ;
285 -> 286 ;
287 [label="Study Hours per Week <= 36.5\ngini = 0.496\nsamples = 22\nvalue = [12, 10]\nclass = 0", fillcolor="#fbeade"] ;
285 -> 287 ;
288 [label="Study Hours per Week <= 34.5\ngini = 0.465\nsamples = 19\nvalue = [12, 7]\nclass = 0", fillcolor="#f4caac"] ;
287 -> 288 ;
289 [label="Study Hours per Week <= 22.0\ngini = 0.492\nsamples = 16\nvalue = [9, 7]\nclass = 0", fillcolor="#f9e3d3"] ;
288 -> 289 ;
290 [label="Attendance Rate <= 708.0\ngini = 0.375\nsamples = 8\nvalue = [6, 2]\nclass = 0", fillcolor="#eeab7b"] ;
289 -> 290 ;
291 [label="gini = 0.0\nsamples = 1\nvalue = [0, 1]\nclass = 1", fillcolor="#399de5"] ;
290 -> 291 ;
292 [label="Attendance Rate <= 827.0\ngini = 0.245\nsamples = 7\nvalue = [6, 1]\nclass = 0", fillcolor="#e9965a"] ;
290 -> 292 ;
293 [label="gini = 0.0\nsamples = 6\nvalue = [6, 0]\nclass = 0", fillcolor="#e58139"] ;
292 -> 293 ;
294 [label="gini = 0.0\nsamples = 1\nvalue = [0, 1]\nclass = 1", fillcolor="#399de5"] ;
292 -> 294 ;
295 [label="Attendance Rate <= 728.5\ngini = 0.469\nsamples = 8\nvalue = [3, 5]\nclass = 1", fillcolor="#b0d8f5"] ;
289 -> 295 ;
296 [label="gini = 0.0\nsamples = 1\nvalue = [1, 0]\nclass = 0", fillcolor="#e58139"] ;
295 -> 296 ;
297 [label="Participation in Extracurricular Activities <= 0.5\ngini = 0.408\nsamples = 7\nvalue = [2, 5]\nclass = 1", fillcolor="#88c4ef"] ;
295 -> 297 ;
298 [label="gini = 0.0\nsamples = 4\nvalue = [0, 4]\nclass = 1", fillcolor="#399de5"] ;
297 -> 298 ;
299 [label="gini = 0.444\nsamples = 3\nvalue = [2, 1]\nclass = 0", fillcolor="#f2c09c"] ;
297 -> 299 ;
300 [label="gini = 0.0\nsamples = 3\nvalue = [3, 0]\nclass = 0", fillcolor="#e58139"] ;
288 -> 300 ;
301 [label="gini = 0.0\nsamples = 3\nvalue = [0, 3]\nclass = 1", fillcolor="#399de5"] ;
287 -> 301 ;
302 [label="Attendance Rate <= 726.0\ngini = 0.198\nsamples = 9\nvalue = [8, 1]\nclass = 0", fillcolor="#e89152"] ;
240 -> 302 ;
303 [label="Study Hours per Week <= 17.5\ngini = 0.444\nsamples = 3\nvalue = [2, 1]\nclass = 0", fillcolor="#f2c09c"] ;
302 -> 303 ;
304 [label="gini = 0.0\nsamples = 2\nvalue = [2, 0]\nclass = 0", fillcolor="#e58139"] ;
303 -> 304 ;
305 [label="gini = 0.0\nsamples = 1\nvalue = [0, 1]\nclass = 1", fillcolor="#399de5"] ;
303 -> 305 ;
306 [label="gini = 0.0\nsamples = 6\nvalue = [6, 0]\nclass = 0", fillcolor="#e58139"] ;
302 -> 306 ;
307 [label="Attendance Rate <= 714.5\ngini = 0.41\nsamples = 59\nvalue = [17, 42]\nclass = 1", fillcolor="#89c5f0"] ;
239 -> 307 ;
308 [label="Study Hours per Week <= 29.0\ngini = 0.165\nsamples = 11\nvalue = [1, 10]\nclass = 1", fillcolor="#4da7e8"] ;
307 -> 308 ;
309 [label="gini = 0.0\nsamples = 8\nvalue = [0, 8]\nclass = 1", fillcolor="#399de5"] ;
308 -> 309 ;
310 [label="Study Hours per Week <= 33.0\ngini = 0.444\nsamples = 3\nvalue = [1, 2]\nclass = 1", fillcolor="#9ccef2"] ;
308 -> 310 ;
311 [label="gini = 0.0\nsamples = 1\nvalue = [1, 0]\nclass = 0", fillcolor="#e58139"] ;
310 -> 311 ;
312 [label="gini = 0.0\nsamples = 2\nvalue = [0, 2]\nclass = 1", fillcolor="#399de5"] ;
310 -> 312 ;
313 [label="Attendance Rate <= 723.5\ngini = 0.444\nsamples = 48\nvalue = [16, 32]\nclass = 1", fillcolor="#9ccef2"] ;
307 -> 313 ;
314 [label="gini = 0.0\nsamples = 3\nvalue = [3, 0]\nclass = 0", fillcolor="#e58139"] ;
313 -> 314 ;
315 [label="Study Hours per Week <= 20.0\ngini = 0.411\nsamples = 45\nvalue = [13, 32]\nclass = 1", fillcolor="#89c5f0"] ;
313 -> 315 ;
316 [label="Study Hours per Week <= 14.5\ngini = 0.48\nsamples = 10\nvalue = [6, 4]\nclass = 0", fillcolor="#f6d5bd"] ;
315 -> 316 ;
317 [label="Attendance Rate <= 792.5\ngini = 0.444\nsamples = 6\nvalue = [2, 4]\nclass = 1", fillcolor="#9ccef2"] ;
316 -> 317 ;
318 [label="gini = 0.0\nsamples = 4\nvalue = [0, 4]\nclass = 1", fillcolor="#399de5"] ;
317 -> 318 ;
319 [label="gini = 0.0\nsamples = 2\nvalue = [2, 0]\nclass = 0", fillcolor="#e58139"] ;
317 -> 319 ;
320 [label="gini = 0.0\nsamples = 4\nvalue = [4, 0]\nclass = 0", fillcolor="#e58139"] ;
316 -> 320 ;
321 [label="Study Hours per Week <= 37.5\ngini = 0.32\nsamples = 35\nvalue = [7, 28]\nclass = 1", fillcolor="#6ab6ec"] ;
315 -> 321 ;
322 [label="Previous Grades <= 374.5\ngini = 0.219\nsamples = 24\nvalue = [3, 21]\nclass = 1", fillcolor="#55abe9"] ;
321 -> 322 ;
323 [label="Attendance Rate <= 777.0\ngini = 0.42\nsamples = 10\nvalue = [3, 7]\nclass = 1", fillcolor="#8ec7f0"] ;
322 -> 323 ;
324 [label="Attendance Rate <= 744.5\ngini = 0.48\nsamples = 5\nvalue = [3, 2]\nclass = 0", fillcolor="#f6d5bd"] ;
323 -> 324 ;
325 [label="gini = 0.0\nsamples = 2\nvalue = [0, 2]\nclass = 1", fillcolor="#399de5"] ;
324 -> 325 ;
326 [label="gini = 0.0\nsamples = 3\nvalue = [3, 0]\nclass = 0", fillcolor="#e58139"] ;
324 -> 326 ;
327 [label="gini = 0.0\nsamples = 5\nvalue = [0, 5]\nclass = 1", fillcolor="#399de5"] ;
323 -> 327 ;
328 [label="gini = 0.0\nsamples = 14\nvalue = [0, 14]\nclass = 1", fillcolor="#399de5"] ;
322 -> 328 ;
329 [label="Attendance Rate <= 789.0\ngini = 0.463\nsamples = 11\nvalue = [4, 7]\nclass = 1", fillcolor="#aad5f4"] ;
321 -> 329 ;
330 [label="Previous Grades <= 375.5\ngini = 0.375\nsamples = 8\nvalue = [2, 6]\nclass = 1", fillcolor="#7bbeee"] ;
329 -> 330 ;
331 [label="gini = 0.0\nsamples = 4\nvalue = [0, 4]\nclass = 1", fillcolor="#399de5"] ;
330 -> 331 ;
332 [label="Attendance Rate <= 765.0\ngini = 0.5\nsamples = 4\nvalue = [2, 2]\nclass = 0", fillcolor="#ffffff"] ;
330 -> 332 ;
333 [label="gini = 0.0\nsamples = 2\nvalue = [2, 0]\nclass = 0", fillcolor="#e58139"] ;
332 -> 333 ;
334 [label="gini = 0.0\nsamples = 2\nvalue = [0, 2]\nclass = 1", fillcolor="#399de5"] ;
332 -> 334 ;
335 [label="Study Hours per Week <= 39.5\ngini = 0.444\nsamples = 3\nvalue = [2, 1]\nclass = 0", fillcolor="#f2c09c"] ;
329 -> 335 ;
336 [label="gini = 0.0\nsamples = 2\nvalue = [2, 0]\nclass = 0", fillcolor="#e58139"] ;
335 -> 336 ;
337 [label="gini = 0.0\nsamples = 1\nvalue = [0, 1]\nclass = 1", fillcolor="#399de5"] ;
335 -> 337 ;
338 [label="Attendance Rate <= 708.5\ngini = 0.367\nsamples = 33\nvalue = [25, 8]\nclass = 0", fillcolor="#eda978"] ;
6 -> 338 ;
339 [label="Participation in Extracurricular Activities <= 0.5\ngini = 0.269\nsamples = 25\nvalue = [21, 4]\nclass = 0", fillcolor="#ea995f"] ;
338 -> 339 ;
340 [label="Attendance Rate <= 568.5\ngini = 0.111\nsamples = 17\nvalue = [16, 1]\nclass = 0", fillcolor="#e78945"] ;
339 -> 340 ;
341 [label="gini = 0.0\nsamples = 10\nvalue = [10, 0]\nclass = 0", fillcolor="#e58139"] ;
340 -> 341 ;
342 [label="Attendance Rate <= 593.0\ngini = 0.245\nsamples = 7\nvalue = [6, 1]\nclass = 0", fillcolor="#e9965a"] ;
340 -> 342 ;
343 [label="gini = 0.0\nsamples = 1\nvalue = [0, 1]\nclass = 1", fillcolor="#399de5"] ;
342 -> 343 ;
344 [label="gini = 0.0\nsamples = 6\nvalue = [6, 0]\nclass = 0", fillcolor="#e58139"] ;
342 -> 344 ;
345 [label="Study Hours per Week <= 19.0\ngini = 0.469\nsamples = 8\nvalue = [5, 3]\nclass = 0", fillcolor="#f5cdb0"] ;
339 -> 345 ;
346 [label="gini = 0.0\nsamples = 3\nvalue = [0, 3]\nclass = 1", fillcolor="#399de5"] ;
345 -> 346 ;
347 [label="gini = 0.0\nsamples = 5\nvalue = [5, 0]\nclass = 0", fillcolor="#e58139"] ;
345 -> 347 ;
348 [label="Attendance Rate <= 743.5\ngini = 0.5\nsamples = 8\nvalue = [4, 4]\nclass = 0", fillcolor="#ffffff"] ;
338 -> 348 ;
349 [label="gini = 0.0\nsamples = 3\nvalue = [0, 3]\nclass = 1", fillcolor="#399de5"] ;
348 -> 349 ;
350 [label="Study Hours per Week <= 36.5\ngini = 0.32\nsamples = 5\nvalue = [4, 1]\nclass = 0", fillcolor="#eca06a"] ;
348 -> 350 ;
351 [label="gini = 0.0\nsamples = 3\nvalue = [3, 0]\nclass = 0", fillcolor="#e58139"] ;
350 -> 351 ;
352 [label="Parent Education Level <= 2.5\ngini = 0.5\nsamples = 2\nvalue = [1, 1]\nclass = 0", fillcolor="#ffffff"] ;
350 -> 352 ;
353 [label="gini = 0.0\nsamples = 1\nvalue = [0, 1]\nclass = 1", fillcolor="#399de5"] ;
352 -> 353 ;
354 [label="gini = 0.0\nsamples = 1\nvalue = [1, 0]\nclass = 0", fillcolor="#e58139"] ;
352 -> 354 ;
355 [label="Attendance Rate <= 726.5\ngini = 0.498\nsamples = 1211\nvalue = [565, 646]\nclass = 1", fillcolor="#e6f3fc"] ;
5 -> 355 ;
356 [label="Attendance Rate <= 722.5\ngini = 0.496\nsamples = 1007\nvalue = [459, 548]\nclass = 1", fillcolor="#dfeffb"] ;
355 -> 356 ;
357 [label="Attendance Rate <= 577.5\ngini = 0.497\nsamples = 1000\nvalue = [459, 541]\nclass = 1", fillcolor="#e1f0fb"] ;
356 -> 357 ;
358 [label="Previous Grades <= 442.5\ngini = 0.499\nsamples = 620\nvalue = [298, 322]\nclass = 1", fillcolor="#f0f8fd"] ;
357 -> 358 ;
359 [label="Study Hours per Week <= 17.5\ngini = 0.476\nsamples = 82\nvalue = [32, 50]\nclass = 1", fillcolor="#b8dcf6"] ;
358 -> 359 ;
360 [label="Attendance Rate <= 530.5\ngini = 0.483\nsamples = 27\nvalue = [16, 11]\nclass = 0", fillcolor="#f7d8c1"] ;
359 -> 360 ;
361 [label="Study Hours per Week <= 1.5\ngini = 0.401\nsamples = 18\nvalue = [13, 5]\nclass = 0", fillcolor="#efb185"] ;
360 -> 361 ;
362 [label="gini = 0.0\nsamples = 1\nvalue = [0, 1]\nclass = 1", fillcolor="#399de5"] ;
361 -> 362 ;
363 [label="Attendance Rate <= 233.0\ngini = 0.36\nsamples = 17\nvalue = [13, 4]\nclass = 0", fillcolor="#eda876"] ;
361 -> 363 ;
364 [label="Study Hours per Week <= 9.0\ngini = 0.444\nsamples = 3\nvalue = [1, 2]\nclass = 1", fillcolor="#9ccef2"] ;
363 -> 364 ;
365 [label="gini = 0.0\nsamples = 1\nvalue = [1, 0]\nclass = 0", fillcolor="#e58139"] ;
364 -> 365 ;
366 [label="gini = 0.0\nsamples = 2\nvalue = [0, 2]\nclass = 1", fillcolor="#399de5"] ;
364 -> 366 ;
367 [label="Participation in Extracurricular Activities <= 0.5\ngini = 0.245\nsamples = 14\nvalue = [12, 2]\nclass = 0", fillcolor="#e9965a"] ;
363 -> 367 ;
368 [label="gini = 0.0\nsamples = 7\nvalue = [7, 0]\nclass = 0", fillcolor="#e58139"] ;
367 -> 368 ;
369 [label="Study Hours per Week <= 14.0\ngini = 0.408\nsamples = 7\nvalue = [5, 2]\nclass = 0", fillcolor="#efb388"] ;
367 -> 369 ;
370 [label="Attendance Rate <= 381.0\ngini = 0.278\nsamples = 6\nvalue = [5, 1]\nclass = 0", fillcolor="#ea9a61"] ;
369 -> 370 ;
371 [label="Study Hours per Week <= 9.5\ngini = 0.5\nsamples = 2\nvalue = [1, 1]\nclass = 0", fillcolor="#ffffff"] ;
370 -> 371 ;
372 [label="gini = 0.0\nsamples = 1\nvalue = [0, 1]\nclass = 1", fillcolor="#399de5"] ;
371 -> 372 ;
373 [label="gini = 0.0\nsamples = 1\nvalue = [1, 0]\nclass = 0", fillcolor="#e58139"] ;
371 -> 373 ;
374 [label="gini = 0.0\nsamples = 4\nvalue = [4, 0]\nclass = 0", fillcolor="#e58139"] ;
370 -> 374 ;
375 [label="gini = 0.0\nsamples = 1\nvalue = [0, 1]\nclass = 1", fillcolor="#399de5"] ;
369 -> 375 ;
376 [label="Participation in Extracurricular Activities <= 0.5\ngini = 0.444\nsamples = 9\nvalue = [3, 6]\nclass = 1", fillcolor="#9ccef2"] ;
360 -> 376 ;
377 [label="Attendance Rate <= 557.5\ngini = 0.278\nsamples = 6\nvalue = [1, 5]\nclass = 1", fillcolor="#61b1ea"] ;
376 -> 377 ;
378 [label="gini = 0.0\nsamples = 4\nvalue = [0, 4]\nclass = 1", fillcolor="#399de5"] ;
377 -> 378 ;
379 [label="Attendance Rate <= 566.0\ngini = 0.5\nsamples = 2\nvalue = [1, 1]\nclass = 0", fillcolor="#ffffff"] ;
377 -> 379 ;
380 [label="gini = 0.0\nsamples = 1\nvalue = [1, 0]\nclass = 0", fillcolor="#e58139"] ;
379 -> 380 ;
381 [label="gini = 0.0\nsamples = 1\nvalue = [0, 1]\nclass = 1", fillcolor="#399de5"] ;
379 -> 381 ;
382 [label="Attendance Rate <= 566.5\ngini = 0.444\nsamples = 3\nvalue = [2, 1]\nclass = 0", fillcolor="#f2c09c"] ;
376 -> 382 ;
383 [label="gini = 0.0\nsamples = 2\nvalue = [2, 0]\nclass = 0", fillcolor="#e58139"] ;
382 -> 383 ;
384 [label="gini = 0.0\nsamples = 1\nvalue = [0, 1]\nclass = 1", fillcolor="#399de5"] ;
382 -> 384 ;
385 [label="Previous Grades <= 430.5\ngini = 0.413\nsamples = 55\nvalue = [16, 39]\nclass = 1", fillcolor="#8ac5f0"] ;
359 -> 385 ;
386 [label="Attendance Rate <= 424.5\ngini = 0.487\nsamples = 31\nvalue = [13, 18]\nclass = 1", fillcolor="#c8e4f8"] ;
385 -> 386 ;
387 [label="Previous Grades <= 419.5\ngini = 0.346\nsamples = 9\nvalue = [7, 2]\nclass = 0", fillcolor="#eca572"] ;
386 -> 387 ;
388 [label="Study Hours per Week <= 30.0\ngini = 0.444\nsamples = 3\nvalue = [1, 2]\nclass = 1", fillcolor="#9ccef2"] ;
387 -> 388 ;
389 [label="gini = 0.0\nsamples = 1\nvalue = [1, 0]\nclass = 0", fillcolor="#e58139"] ;
388 -> 389 ;
390 [label="gini = 0.0\nsamples = 2\nvalue = [0, 2]\nclass = 1", fillcolor="#399de5"] ;
388 -> 390 ;
391 [label="gini = 0.0\nsamples = 6\nvalue = [6, 0]\nclass = 0", fillcolor="#e58139"] ;
387 -> 391 ;
392 [label="Previous Grades <= 415.5\ngini = 0.397\nsamples = 22\nvalue = [6, 16]\nclass = 1", fillcolor="#83c2ef"] ;
386 -> 392 ;
393 [label="gini = 0.0\nsamples = 5\nvalue = [0, 5]\nclass = 1", fillcolor="#399de5"] ;
392 -> 393 ;
394 [label="Previous Grades <= 418.0\ngini = 0.457\nsamples = 17\nvalue = [6, 11]\nclass = 1", fillcolor="#a5d2f3"] ;
392 -> 394 ;
395 [label="Attendance Rate <= 431.5\ngini = 0.375\nsamples = 4\nvalue = [3, 1]\nclass = 0", fillcolor="#eeab7b"] ;
394 -> 395 ;
396 [label="gini = 0.0\nsamples = 1\nvalue = [0, 1]\nclass = 1", fillcolor="#399de5"] ;
395 -> 396 ;
397 [label="gini = 0.0\nsamples = 3\nvalue = [3, 0]\nclass = 0", fillcolor="#e58139"] ;
395 -> 397 ;
398 [label="Parent Education Level <= 0.5\ngini = 0.355\nsamples = 13\nvalue = [3, 10]\nclass = 1", fillcolor="#74baed"] ;
394 -> 398 ;
399 [label="Study Hours per Week <= 23.5\ngini = 0.444\nsamples = 3\nvalue = [2, 1]\nclass = 0", fillcolor="#f2c09c"] ;
398 -> 399 ;
400 [label="gini = 0.0\nsamples = 1\nvalue = [0, 1]\nclass = 1", fillcolor="#399de5"] ;
399 -> 400 ;
401 [label="gini = 0.0\nsamples = 2\nvalue = [2, 0]\nclass = 0", fillcolor="#e58139"] ;
399 -> 401 ;
402 [label="Study Hours per Week <= 35.5\ngini = 0.18\nsamples = 10\nvalue = [1, 9]\nclass = 1", fillcolor="#4fa8e8"] ;
398 -> 402 ;
403 [label="gini = 0.0\nsamples = 8\nvalue = [0, 8]\nclass = 1", fillcolor="#399de5"] ;
402 -> 403 ;
404 [label="Previous Grades <= 428.5\ngini = 0.5\nsamples = 2\nvalue = [1, 1]\nclass = 0", fillcolor="#ffffff"] ;
402 -> 404 ;
405 [label="gini = 0.0\nsamples = 1\nvalue = [0, 1]\nclass = 1", fillcolor="#399de5"] ;
404 -> 405 ;
406 [label="gini = 0.0\nsamples = 1\nvalue = [1, 0]\nclass = 0", fillcolor="#e58139"] ;
404 -> 406 ;
407 [label="Participation in Extracurricular Activities <= 0.5\ngini = 0.219\nsamples = 24\nvalue = [3, 21]\nclass = 1", fillcolor="#55abe9"] ;
385 -> 407 ;
408 [label="Study Hours per Week <= 31.0\ngini = 0.397\nsamples = 11\nvalue = [3, 8]\nclass = 1", fillcolor="#83c2ef"] ;
407 -> 408 ;
409 [label="gini = 0.0\nsamples = 6\nvalue = [0, 6]\nclass = 1", fillcolor="#399de5"] ;
408 -> 409 ;
410 [label="Study Hours per Week <= 38.5\ngini = 0.48\nsamples = 5\nvalue = [3, 2]\nclass = 0", fillcolor="#f6d5bd"] ;
408 -> 410 ;
411 [label="gini = 0.0\nsamples = 2\nvalue = [2, 0]\nclass = 0", fillcolor="#e58139"] ;
410 -> 411 ;
412 [label="Parent Education Level <= 3.5\ngini = 0.444\nsamples = 3\nvalue = [1, 2]\nclass = 1", fillcolor="#9ccef2"] ;
410 -> 412 ;
413 [label="gini = 0.0\nsamples = 2\nvalue = [0, 2]\nclass = 1", fillcolor="#399de5"] ;
412 -> 413 ;
414 [label="gini = 0.0\nsamples = 1\nvalue = [1, 0]\nclass = 0", fillcolor="#e58139"] ;
412 -> 414 ;
415 [label="gini = 0.0\nsamples = 13\nvalue = [0, 13]\nclass = 1", fillcolor="#399de5"] ;
407 -> 415 ;
416 [label="Previous Grades <= 450.5\ngini = 0.5\nsamples = 538\nvalue = [266, 272]\nclass = 1", fillcolor="#fbfdfe"] ;
358 -> 416 ;
417 [label="Study Hours per Week <= 20.5\ngini = 0.346\nsamples = 18\nvalue = [14, 4]\nclass = 0", fillcolor="#eca572"] ;
416 -> 417 ;
418 [label="Study Hours per Week <= 15.0\ngini = 0.48\nsamples = 5\nvalue = [2, 3]\nclass = 1", fillcolor="#bddef6"] ;
417 -> 418 ;
419 [label="gini = 0.0\nsamples = 2\nvalue = [2, 0]\nclass = 0", fillcolor="#e58139"] ;
418 -> 419 ;
420 [label="gini = 0.0\nsamples = 3\nvalue = [0, 3]\nclass = 1", fillcolor="#399de5"] ;
418 -> 420 ;
421 [label="Study Hours per Week <= 36.5\ngini = 0.142\nsamples = 13\nvalue = [12, 1]\nclass = 0", fillcolor="#e78c49"] ;
417 -> 421 ;
422 [label="gini = 0.0\nsamples = 10\nvalue = [10, 0]\nclass = 0", fillcolor="#e58139"] ;
421 -> 422 ;
423 [label="Parent Education Level <= 1.5\ngini = 0.444\nsamples = 3\nvalue = [2, 1]\nclass = 0", fillcolor="#f2c09c"] ;
421 -> 423 ;
424 [label="gini = 0.0\nsamples = 2\nvalue = [2, 0]\nclass = 0", fillcolor="#e58139"] ;
423 -> 424 ;
425 [label="gini = 0.0\nsamples = 1\nvalue = [0, 1]\nclass = 1", fillcolor="#399de5"] ;
423 -> 425 ;
426 [label="Attendance Rate <= 420.5\ngini = 0.5\nsamples = 520\nvalue = [252, 268]\nclass = 1", fillcolor="#f3f9fd"] ;
416 -> 426 ;
427 [label="Study Hours per Week <= 2.5\ngini = 0.489\nsamples = 205\nvalue = [87, 118]\nclass = 1", fillcolor="#cbe5f8"] ;
426 -> 427 ;
428 [label="Previous Grades <= 461.5\ngini = 0.32\nsamples = 10\nvalue = [2, 8]\nclass = 1", fillcolor="#6ab6ec"] ;
427 -> 428 ;
429 [label="gini = 0.0\nsamples = 1\nvalue = [1, 0]\nclass = 0", fillcolor="#e58139"] ;
428 -> 429 ;
430 [label="Attendance Rate <= 399.5\ngini = 0.198\nsamples = 9\nvalue = [1, 8]\nclass = 1", fillcolor="#52a9e8"] ;
428 -> 430 ;
431 [label="gini = 0.0\nsamples = 8\nvalue = [0, 8]\nclass = 1", fillcolor="#399de5"] ;
430 -> 431 ;
432 [label="gini = 0.0\nsamples = 1\nvalue = [1, 0]\nclass = 0", fillcolor="#e58139"] ;
430 -> 432 ;
433 [label="Attendance Rate <= 308.5\ngini = 0.492\nsamples = 195\nvalue = [85, 110]\nclass = 1", fillcolor="#d2e9f9"] ;
427 -> 433 ;
434 [label="Attendance Rate <= 292.5\ngini = 0.5\nsamples = 77\nvalue = [39, 38]\nclass = 0", fillcolor="#fefcfa"] ;
433 -> 434 ;
435 [label="Attendance Rate <= 285.5\ngini = 0.498\nsamples = 70\nvalue = [33, 37]\nclass = 1", fillcolor="#eaf4fc"] ;
434 -> 435 ;
436 [label="Attendance Rate <= 280.0\ngini = 0.5\nsamples = 67\nvalue = [33, 34]\nclass = 1", fillcolor="#f9fcfe"] ;
435 -> 436 ;
437 [label="Previous Grades <= 655.0\ngini = 0.498\nsamples = 64\nvalue = [30, 34]\nclass = 1", fillcolor="#e8f3fc"] ;
436 -> 437 ;
438 [label="Study Hours per Week <= 6.5\ngini = 0.5\nsamples = 59\nvalue = [30, 29]\nclass = 0", fillcolor="#fefbf8"] ;
437 -> 438 ;
439 [label="gini = 0.0\nsamples = 3\nvalue = [0, 3]\nclass = 1", fillcolor="#399de5"] ;
438 -> 439 ;
440 [label="Study Hours per Week <= 35.5\ngini = 0.497\nsamples = 56\nvalue = [30, 26]\nclass = 0", fillcolor="#fceee5"] ;
438 -> 440 ;
441 [label="gini = 0.499\nsamples = 42\nvalue = [20, 22]\nclass = 1", fillcolor="#edf6fd"] ;
440 -> 441 ;
442 [label="gini = 0.408\nsamples = 14\nvalue = [10, 4]\nclass = 0", fillcolor="#efb388"] ;
440 -> 442 ;
443 [label="gini = 0.0\nsamples = 5\nvalue = [0, 5]\nclass = 1", fillcolor="#399de5"] ;
437 -> 443 ;
444 [label="gini = 0.0\nsamples = 3\nvalue = [3, 0]\nclass = 0", fillcolor="#e58139"] ;
436 -> 444 ;
445 [label="gini = 0.0\nsamples = 3\nvalue = [0, 3]\nclass = 1", fillcolor="#399de5"] ;
435 -> 445 ;
446 [label="Parent Education Level <= 0.5\ngini = 0.245\nsamples = 7\nvalue = [6, 1]\nclass = 0", fillcolor="#e9965a"] ;
434 -> 446 ;
447 [label="gini = 0.0\nsamples = 1\nvalue = [0, 1]\nclass = 1", fillcolor="#399de5"] ;
446 -> 447 ;
448 [label="gini = 0.0\nsamples = 6\nvalue = [6, 0]\nclass = 0", fillcolor="#e58139"] ;
446 -> 448 ;
449 [label="Attendance Rate <= 328.5\ngini = 0.476\nsamples = 118\nvalue = [46, 72]\nclass = 1", fillcolor="#b8dcf6"] ;
433 -> 449 ;
450 [label="Study Hours per Week <= 11.5\ngini = 0.219\nsamples = 16\nvalue = [2, 14]\nclass = 1", fillcolor="#55abe9"] ;
449 -> 450 ;
451 [label="Participation in Extracurricular Activities <= 0.5\ngini = 0.5\nsamples = 2\nvalue = [1, 1]\nclass = 0", fillcolor="#ffffff"] ;
450 -> 451 ;
452 [label="gini = 0.0\nsamples = 1\nvalue = [0, 1]\nclass = 1", fillcolor="#399de5"] ;
451 -> 452 ;
453 [label="gini = 0.0\nsamples = 1\nvalue = [1, 0]\nclass = 0", fillcolor="#e58139"] ;
451 -> 453 ;
454 [label="Parent Education Level <= 0.5\ngini = 0.133\nsamples = 14\nvalue = [1, 13]\nclass = 1", fillcolor="#48a5e7"] ;
450 -> 454 ;
455 [label="Attendance Rate <= 315.0\ngini = 0.375\nsamples = 4\nvalue = [1, 3]\nclass = 1", fillcolor="#7bbeee"] ;
454 -> 455 ;
456 [label="Study Hours per Week <= 23.5\ngini = 0.5\nsamples = 2\nvalue = [1, 1]\nclass = 0", fillcolor="#ffffff"] ;
455 -> 456 ;
457 [label="gini = 0.0\nsamples = 1\nvalue = [1, 0]\nclass = 0", fillcolor="#e58139"] ;
456 -> 457 ;
458 [label="gini = 0.0\nsamples = 1\nvalue = [0, 1]\nclass = 1", fillcolor="#399de5"] ;
456 -> 458 ;
459 [label="gini = 0.0\nsamples = 2\nvalue = [0, 2]\nclass = 1", fillcolor="#399de5"] ;
455 -> 459 ;
460 [label="gini = 0.0\nsamples = 10\nvalue = [0, 10]\nclass = 1", fillcolor="#399de5"] ;
454 -> 460 ;
461 [label="Previous Grades <= 455.5\ngini = 0.491\nsamples = 102\nvalue = [44, 58]\nclass = 1", fillcolor="#cfe7f9"] ;
449 -> 461 ;
462 [label="gini = 0.0\nsamples = 3\nvalue = [0, 3]\nclass = 1", fillcolor="#399de5"] ;
461 -> 462 ;
463 [label="Attendance Rate <= 417.0\ngini = 0.494\nsamples = 99\nvalue = [44, 55]\nclass = 1", fillcolor="#d7ebfa"] ;
461 -> 463 ;
464 [label="Attendance Rate <= 414.5\ngini = 0.497\nsamples = 93\nvalue = [43, 50]\nclass = 1", fillcolor="#e3f1fb"] ;
463 -> 464 ;
465 [label="Previous Grades <= 664.5\ngini = 0.495\nsamples = 91\nvalue = [41, 50]\nclass = 1", fillcolor="#dbedfa"] ;
464 -> 465 ;
466 [label="Previous Grades <= 588.5\ngini = 0.498\nsamples = 87\nvalue = [41, 46]\nclass = 1", fillcolor="#e9f4fc"] ;
465 -> 466 ;
467 [label="gini = 0.489\nsamples = 66\nvalue = [28, 38]\nclass = 1", fillcolor="#cbe5f8"] ;
466 -> 467 ;
468 [label="gini = 0.472\nsamples = 21\nvalue = [13, 8]\nclass = 0", fillcolor="#f5cfb3"] ;
466 -> 468 ;
469 [label="gini = 0.0\nsamples = 4\nvalue = [0, 4]\nclass = 1", fillcolor="#399de5"] ;
465 -> 469 ;
470 [label="gini = 0.0\nsamples = 2\nvalue = [2, 0]\nclass = 0", fillcolor="#e58139"] ;
464 -> 470 ;
471 [label="Study Hours per Week <= 25.0\ngini = 0.278\nsamples = 6\nvalue = [1, 5]\nclass = 1", fillcolor="#61b1ea"] ;
463 -> 471 ;
472 [label="Attendance Rate <= 419.5\ngini = 0.5\nsamples = 2\nvalue = [1, 1]\nclass = 0", fillcolor="#ffffff"] ;
471 -> 472 ;
473 [label="gini = 0.0\nsamples = 1\nvalue = [1, 0]\nclass = 0", fillcolor="#e58139"] ;
472 -> 473 ;
474 [label="gini = 0.0\nsamples = 1\nvalue = [0, 1]\nclass = 1", fillcolor="#399de5"] ;
472 -> 474 ;
475 [label="gini = 0.0\nsamples = 4\nvalue = [0, 4]\nclass = 1", fillcolor="#399de5"] ;
471 -> 475 ;
476 [label="Attendance Rate <= 467.5\ngini = 0.499\nsamples = 315\nvalue = [165, 150]\nclass = 0", fillcolor="#fdf4ed"] ;
426 -> 476 ;
477 [label="Parent Education Level <= 1.5\ngini = 0.452\nsamples = 58\nvalue = [38, 20]\nclass = 0", fillcolor="#f3c3a1"] ;
476 -> 477 ;
478 [label="Attendance Rate <= 437.5\ngini = 0.494\nsamples = 18\nvalue = [8, 10]\nclass = 1", fillcolor="#d7ebfa"] ;
477 -> 478 ;
479 [label="gini = 0.0\nsamples = 4\nvalue = [0, 4]\nclass = 1", fillcolor="#399de5"] ;
478 -> 479 ;
480 [label="Study Hours per Week <= 31.5\ngini = 0.49\nsamples = 14\nvalue = [8, 6]\nclass = 0", fillcolor="#f8e0ce"] ;
478 -> 480 ;
481 [label="Parent Education Level <= 0.5\ngini = 0.219\nsamples = 8\nvalue = [7, 1]\nclass = 0", fillcolor="#e99355"] ;
480 -> 481 ;
482 [label="gini = 0.0\nsamples = 7\nvalue = [7, 0]\nclass = 0", fillcolor="#e58139"] ;
481 -> 482 ;
483 [label="gini = 0.0\nsamples = 1\nvalue = [0, 1]\nclass = 1", fillcolor="#399de5"] ;
481 -> 483 ;
484 [label="Attendance Rate <= 442.0\ngini = 0.278\nsamples = 6\nvalue = [1, 5]\nclass = 1", fillcolor="#61b1ea"] ;
480 -> 484 ;
485 [label="gini = 0.0\nsamples = 1\nvalue = [1, 0]\nclass = 0", fillcolor="#e58139"] ;
484 -> 485 ;
486 [label="gini = 0.0\nsamples = 5\nvalue = [0, 5]\nclass = 1", fillcolor="#399de5"] ;
484 -> 486 ;
487 [label="Previous Grades <= 695.5\ngini = 0.375\nsamples = 40\nvalue = [30, 10]\nclass = 0", fillcolor="#eeab7b"] ;
477 -> 487 ;
488 [label="Study Hours per Week <= 32.5\ngini = 0.339\nsamples = 37\nvalue = [29, 8]\nclass = 0", fillcolor="#eca470"] ;
487 -> 488 ;
489 [label="Attendance Rate <= 429.5\ngini = 0.435\nsamples = 25\nvalue = [17, 8]\nclass = 0", fillcolor="#f1bc96"] ;
488 -> 489 ;
490 [label="Previous Grades <= 477.0\ngini = 0.48\nsamples = 5\nvalue = [2, 3]\nclass = 1", fillcolor="#bddef6"] ;
489 -> 490 ;
491 [label="gini = 0.0\nsamples = 2\nvalue = [2, 0]\nclass = 0", fillcolor="#e58139"] ;
490 -> 491 ;
492 [label="gini = 0.0\nsamples = 3\nvalue = [0, 3]\nclass = 1", fillcolor="#399de5"] ;
490 -> 492 ;
493 [label="Parent Education Level <= 4.5\ngini = 0.375\nsamples = 20\nvalue = [15, 5]\nclass = 0", fillcolor="#eeab7b"] ;
489 -> 493 ;
494 [label="Attendance Rate <= 441.5\ngini = 0.332\nsamples = 19\nvalue = [15, 4]\nclass = 0", fillcolor="#eca36e"] ;
493 -> 494 ;
495 [label="gini = 0.0\nsamples = 5\nvalue = [5, 0]\nclass = 0", fillcolor="#e58139"] ;
494 -> 495 ;
496 [label="Attendance Rate <= 443.5\ngini = 0.408\nsamples = 14\nvalue = [10, 4]\nclass = 0", fillcolor="#efb388"] ;
494 -> 496 ;
497 [label="gini = 0.0\nsamples = 1\nvalue = [0, 1]\nclass = 1", fillcolor="#399de5"] ;
496 -> 497 ;
498 [label="gini = 0.355\nsamples = 13\nvalue = [10, 3]\nclass = 0", fillcolor="#eda774"] ;
496 -> 498 ;
499 [label="gini = 0.0\nsamples = 1\nvalue = [0, 1]\nclass = 1", fillcolor="#399de5"] ;
493 -> 499 ;
500 [label="gini = 0.0\nsamples = 12\nvalue = [12, 0]\nclass = 0", fillcolor="#e58139"] ;
488 -> 500 ;
501 [label="Study Hours per Week <= 34.0\ngini = 0.444\nsamples = 3\nvalue = [1, 2]\nclass = 1", fillcolor="#9ccef2"] ;
487 -> 501 ;
502 [label="gini = 0.0\nsamples = 1\nvalue = [1, 0]\nclass = 0", fillcolor="#e58139"] ;
501 -> 502 ;
503 [label="gini = 0.0\nsamples = 2\nvalue = [0, 2]\nclass = 1", fillcolor="#399de5"] ;
501 -> 503 ;
504 [label="Attendance Rate <= 564.5\ngini = 0.5\nsamples = 257\nvalue = [127, 130]\nclass = 1", fillcolor="#fafdfe"] ;
476 -> 504 ;
505 [label="Attendance Rate <= 469.5\ngini = 0.499\nsamples = 230\nvalue = [109, 121]\nclass = 1", fillcolor="#ebf5fc"] ;
504 -> 505 ;
506 [label="gini = 0.0\nsamples = 3\nvalue = [0, 3]\nclass = 1", fillcolor="#399de5"] ;
505 -> 506 ;
507 [label="Previous Grades <= 611.5\ngini = 0.499\nsamples = 227\nvalue = [109, 118]\nclass = 1", fillcolor="#f0f8fd"] ;
505 -> 507 ;
508 [label="Previous Grades <= 606.0\ngini = 0.5\nsamples = 176\nvalue = [90, 86]\nclass = 0", fillcolor="#fef9f6"] ;
507 -> 508 ;
509 [label="Attendance Rate <= 554.5\ngini = 0.5\nsamples = 172\nvalue = [86, 86]\nclass = 0", fillcolor="#ffffff"] ;
508 -> 509 ;
510 [label="Study Hours per Week <= 31.5\ngini = 0.499\nsamples = 157\nvalue = [75, 82]\nclass = 1", fillcolor="#eef7fd"] ;
509 -> 510 ;
511 [label="Study Hours per Week <= 29.5\ngini = 0.488\nsamples = 104\nvalue = [44, 60]\nclass = 1", fillcolor="#cae5f8"] ;
510 -> 511 ;
512 [label="gini = 0.498\nsamples = 92\nvalue = [43, 49]\nclass = 1", fillcolor="#e7f3fc"] ;
511 -> 512 ;
513 [label="gini = 0.153\nsamples = 12\nvalue = [1, 11]\nclass = 1", fillcolor="#4ba6e7"] ;
511 -> 513 ;
514 [label="Previous Grades <= 482.5\ngini = 0.486\nsamples = 53\nvalue = [31, 22]\nclass = 0", fillcolor="#f7dac6"] ;
510 -> 514 ;
515 [label="gini = 0.459\nsamples = 14\nvalue = [5, 9]\nclass = 1", fillcolor="#a7d3f3"] ;
514 -> 515 ;
516 [label="gini = 0.444\nsamples = 39\nvalue = [26, 13]\nclass = 0", fillcolor="#f2c09c"] ;
514 -> 516 ;
517 [label="Previous Grades <= 502.0\ngini = 0.391\nsamples = 15\nvalue = [11, 4]\nclass = 0", fillcolor="#eeaf81"] ;
509 -> 517 ;
518 [label="Parent Education Level <= 2.5\ngini = 0.48\nsamples = 5\nvalue = [2, 3]\nclass = 1", fillcolor="#bddef6"] ;
517 -> 518 ;
519 [label="gini = 0.0\nsamples = 3\nvalue = [0, 3]\nclass = 1", fillcolor="#399de5"] ;
518 -> 519 ;
520 [label="gini = 0.0\nsamples = 2\nvalue = [2, 0]\nclass = 0", fillcolor="#e58139"] ;
518 -> 520 ;
521 [label="Previous Grades <= 603.5\ngini = 0.18\nsamples = 10\nvalue = [9, 1]\nclass = 0", fillcolor="#e88f4f"] ;
517 -> 521 ;
522 [label="gini = 0.0\nsamples = 9\nvalue = [9, 0]\nclass = 0", fillcolor="#e58139"] ;
521 -> 522 ;
523 [label="gini = 0.0\nsamples = 1\nvalue = [0, 1]\nclass = 1", fillcolor="#399de5"] ;
521 -> 523 ;
524 [label="gini = 0.0\nsamples = 4\nvalue = [4, 0]\nclass = 0", fillcolor="#e58139"] ;
508 -> 524 ;
525 [label="Previous Grades <= 695.5\ngini = 0.468\nsamples = 51\nvalue = [19, 32]\nclass = 1", fillcolor="#afd7f4"] ;
507 -> 525 ;
526 [label="Study Hours per Week <= 29.5\ngini = 0.414\nsamples = 41\nvalue = [12, 29]\nclass = 1", fillcolor="#8bc6f0"] ;
525 -> 526 ;
527 [label="Attendance Rate <= 478.0\ngini = 0.49\nsamples = 28\nvalue = [12, 16]\nclass = 1", fillcolor="#cee6f8"] ;
526 -> 527 ;
528 [label="gini = 0.0\nsamples = 3\nvalue = [3, 0]\nclass = 0", fillcolor="#e58139"] ;
527 -> 528 ;
529 [label="Study Hours per Week <= 26.5\ngini = 0.461\nsamples = 25\nvalue = [9, 16]\nclass = 1", fillcolor="#a8d4f4"] ;
527 -> 529 ;
530 [label="gini = 0.423\nsamples = 23\nvalue = [7, 16]\nclass = 1", fillcolor="#90c8f0"] ;
529 -> 530 ;
531 [label="gini = 0.0\nsamples = 2\nvalue = [2, 0]\nclass = 0", fillcolor="#e58139"] ;
529 -> 531 ;
532 [label="gini = 0.0\nsamples = 13\nvalue = [0, 13]\nclass = 1", fillcolor="#399de5"] ;
526 -> 532 ;
533 [label="Study Hours per Week <= 27.5\ngini = 0.42\nsamples = 10\nvalue = [7, 3]\nclass = 0", fillcolor="#f0b78e"] ;
525 -> 533 ;
534 [label="gini = 0.0\nsamples = 3\nvalue = [0, 3]\nclass = 1", fillcolor="#399de5"] ;
533 -> 534 ;
535 [label="gini = 0.0\nsamples = 7\nvalue = [7, 0]\nclass = 0", fillcolor="#e58139"] ;
533 -> 535 ;
536 [label="Previous Grades <= 599.0\ngini = 0.444\nsamples = 27\nvalue = [18, 9]\nclass = 0", fillcolor="#f2c09c"] ;
504 -> 536 ;
537 [label="Previous Grades <= 553.0\ngini = 0.476\nsamples = 23\nvalue = [14, 9]\nclass = 0", fillcolor="#f6d2b8"] ;
536 -> 537 ;
538 [label="Previous Grades <= 519.5\ngini = 0.401\nsamples = 18\nvalue = [13, 5]\nclass = 0", fillcolor="#efb185"] ;
537 -> 538 ;
539 [label="Study Hours per Week <= 24.0\ngini = 0.486\nsamples = 12\nvalue = [7, 5]\nclass = 0", fillcolor="#f8dbc6"] ;
538 -> 539 ;
540 [label="gini = 0.0\nsamples = 4\nvalue = [4, 0]\nclass = 0", fillcolor="#e58139"] ;
539 -> 540 ;
541 [label="Study Hours per Week <= 27.5\ngini = 0.469\nsamples = 8\nvalue = [3, 5]\nclass = 1", fillcolor="#b0d8f5"] ;
539 -> 541 ;
542 [label="gini = 0.0\nsamples = 3\nvalue = [0, 3]\nclass = 1", fillcolor="#399de5"] ;
541 -> 542 ;
543 [label="Study Hours per Week <= 37.5\ngini = 0.48\nsamples = 5\nvalue = [3, 2]\nclass = 0", fillcolor="#f6d5bd"] ;
541 -> 543 ;
544 [label="gini = 0.375\nsamples = 4\nvalue = [3, 1]\nclass = 0", fillcolor="#eeab7b"] ;
543 -> 544 ;
545 [label="gini = 0.0\nsamples = 1\nvalue = [0, 1]\nclass = 1", fillcolor="#399de5"] ;
543 -> 545 ;
546 [label="gini = 0.0\nsamples = 6\nvalue = [6, 0]\nclass = 0", fillcolor="#e58139"] ;
538 -> 546 ;
547 [label="Parent Education Level <= 3.0\ngini = 0.32\nsamples = 5\nvalue = [1, 4]\nclass = 1", fillcolor="#6ab6ec"] ;
537 -> 547 ;
548 [label="gini = 0.0\nsamples = 4\nvalue = [0, 4]\nclass = 1", fillcolor="#399de5"] ;
547 -> 548 ;
549 [label="gini = 0.0\nsamples = 1\nvalue = [1, 0]\nclass = 0", fillcolor="#e58139"] ;
547 -> 549 ;
550 [label="gini = 0.0\nsamples = 4\nvalue = [4, 0]\nclass = 0", fillcolor="#e58139"] ;
536 -> 550 ;
551 [label="Attendance Rate <= 580.5\ngini = 0.488\nsamples = 380\nvalue = [161, 219]\nclass = 1", fillcolor="#cbe5f8"] ;
357 -> 551 ;
552 [label="gini = 0.0\nsamples = 6\nvalue = [0, 6]\nclass = 1", fillcolor="#399de5"] ;
551 -> 552 ;
553 [label="Previous Grades <= 700.5\ngini = 0.49\nsamples = 374\nvalue = [161, 213]\nclass = 1", fillcolor="#cfe7f9"] ;
551 -> 553 ;
554 [label="Study Hours per Week <= 38.5\ngini = 0.493\nsamples = 362\nvalue = [159, 203]\nclass = 1", fillcolor="#d4eaf9"] ;
553 -> 554 ;
555 [label="Study Hours per Week <= 33.5\ngini = 0.49\nsamples = 339\nvalue = [145, 194]\nclass = 1", fillcolor="#cde6f8"] ;
554 -> 555 ;
556 [label="Study Hours per Week <= 28.5\ngini = 0.496\nsamples = 258\nvalue = [118, 140]\nclass = 1", fillcolor="#e0f0fb"] ;
555 -> 556 ;
557 [label="Attendance Rate <= 705.5\ngini = 0.488\nsamples = 194\nvalue = [82, 112]\nclass = 1", fillcolor="#cae5f8"] ;
556 -> 557 ;
558 [label="Study Hours per Week <= 0.5\ngini = 0.48\nsamples = 173\nvalue = [69, 104]\nclass = 1", fillcolor="#bcdef6"] ;
557 -> 558 ;
559 [label="Parent Education Level <= 3.0\ngini = 0.32\nsamples = 5\nvalue = [4, 1]\nclass = 0", fillcolor="#eca06a"] ;
558 -> 559 ;
560 [label="gini = 0.0\nsamples = 4\nvalue = [4, 0]\nclass = 0", fillcolor="#e58139"] ;
559 -> 560 ;
561 [label="gini = 0.0\nsamples = 1\nvalue = [0, 1]\nclass = 1", fillcolor="#399de5"] ;
559 -> 561 ;
562 [label="Attendance Rate <= 696.5\ngini = 0.474\nsamples = 168\nvalue = [65, 103]\nclass = 1", fillcolor="#b6dbf5"] ;
558 -> 562 ;
563 [label="Parent Education Level <= 0.5\ngini = 0.48\nsamples = 163\nvalue = [65, 98]\nclass = 1", fillcolor="#bcdef6"] ;
562 -> 563 ;
564 [label="Attendance Rate <= 691.5\ngini = 0.405\nsamples = 39\nvalue = [11, 28]\nclass = 1", fillcolor="#87c4ef"] ;
563 -> 564 ;
565 [label="Study Hours per Week <= 23.5\ngini = 0.368\nsamples = 37\nvalue = [9, 28]\nclass = 1", fillcolor="#79bced"] ;
564 -> 565 ;
566 [label="gini = 0.227\nsamples = 23\nvalue = [3, 20]\nclass = 1", fillcolor="#57ace9"] ;
565 -> 566 ;
567 [label="gini = 0.49\nsamples = 14\nvalue = [6, 8]\nclass = 1", fillcolor="#cee6f8"] ;
565 -> 567 ;
568 [label="gini = 0.0\nsamples = 2\nvalue = [2, 0]\nclass = 0", fillcolor="#e58139"] ;
564 -> 568 ;
569 [label="Attendance Rate <= 585.5\ngini = 0.492\nsamples = 124\nvalue = [54, 70]\nclass = 1", fillcolor="#d2e9f9"] ;
563 -> 569 ;
570 [label="gini = 0.0\nsamples = 3\nvalue = [3, 0]\nclass = 0", fillcolor="#e58139"] ;
569 -> 570 ;
571 [label="Previous Grades <= 450.0\ngini = 0.488\nsamples = 121\nvalue = [51, 70]\nclass = 1", fillcolor="#c9e4f8"] ;
569 -> 571 ;
572 [label="gini = 0.408\nsamples = 7\nvalue = [5, 2]\nclass = 0", fillcolor="#efb388"] ;
571 -> 572 ;
573 [label="gini = 0.481\nsamples = 114\nvalue = [46, 68]\nclass = 1", fillcolor="#bfdff7"] ;
571 -> 573 ;
574 [label="gini = 0.0\nsamples = 5\nvalue = [0, 5]\nclass = 1", fillcolor="#399de5"] ;
562 -> 574 ;
575 [label="Attendance Rate <= 715.0\ngini = 0.472\nsamples = 21\nvalue = [13, 8]\nclass = 0", fillcolor="#f5cfb3"] ;
557 -> 575 ;
576 [label="Previous Grades <= 604.0\ngini = 0.165\nsamples = 11\nvalue = [10, 1]\nclass = 0", fillcolor="#e88e4d"] ;
575 -> 576 ;
577 [label="gini = 0.0\nsamples = 10\nvalue = [10, 0]\nclass = 0", fillcolor="#e58139"] ;
576 -> 577 ;
578 [label="gini = 0.0\nsamples = 1\nvalue = [0, 1]\nclass = 1", fillcolor="#399de5"] ;
576 -> 578 ;
579 [label="Attendance Rate <= 720.5\ngini = 0.42\nsamples = 10\nvalue = [3, 7]\nclass = 1", fillcolor="#8ec7f0"] ;
575 -> 579 ;
580 [label="gini = 0.0\nsamples = 5\nvalue = [0, 5]\nclass = 1", fillcolor="#399de5"] ;
579 -> 580 ;
581 [label="Previous Grades <= 481.0\ngini = 0.48\nsamples = 5\nvalue = [3, 2]\nclass = 0", fillcolor="#f6d5bd"] ;
579 -> 581 ;
582 [label="Parent Education Level <= 3.0\ngini = 0.444\nsamples = 3\nvalue = [1, 2]\nclass = 1", fillcolor="#9ccef2"] ;
581 -> 582 ;
583 [label="gini = 0.0\nsamples = 2\nvalue = [0, 2]\nclass = 1", fillcolor="#399de5"] ;
582 -> 583 ;
584 [label="gini = 0.0\nsamples = 1\nvalue = [1, 0]\nclass = 0", fillcolor="#e58139"] ;
582 -> 584 ;
585 [label="gini = 0.0\nsamples = 2\nvalue = [2, 0]\nclass = 0", fillcolor="#e58139"] ;
581 -> 585 ;
586 [label="Previous Grades <= 428.0\ngini = 0.492\nsamples = 64\nvalue = [36, 28]\nclass = 0", fillcolor="#f9e3d3"] ;
556 -> 586 ;
587 [label="gini = 0.0\nsamples = 5\nvalue = [5, 0]\nclass = 0", fillcolor="#e58139"] ;
586 -> 587 ;
588 [label="Parent Education Level <= 4.5\ngini = 0.499\nsamples = 59\nvalue = [31, 28]\nclass = 0", fillcolor="#fcf3ec"] ;
586 -> 588 ;
589 [label="Parent Education Level <= 2.5\ngini = 0.5\nsamples = 56\nvalue = [28, 28]\nclass = 0", fillcolor="#ffffff"] ;
588 -> 589 ;
590 [label="Participation in Extracurricular Activities <= 0.5\ngini = 0.492\nsamples = 39\nvalue = [22, 17]\nclass = 0", fillcolor="#f9e2d2"] ;
589 -> 590 ;
591 [label="Attendance Rate <= 606.0\ngini = 0.401\nsamples = 18\nvalue = [13, 5]\nclass = 0", fillcolor="#efb185"] ;
590 -> 591 ;
592 [label="gini = 0.0\nsamples = 2\nvalue = [0, 2]\nclass = 1", fillcolor="#399de5"] ;
591 -> 592 ;
593 [label="Attendance Rate <= 705.0\ngini = 0.305\nsamples = 16\nvalue = [13, 3]\nclass = 0", fillcolor="#eb9e67"] ;
591 -> 593 ;
594 [label="gini = 0.133\nsamples = 14\nvalue = [13, 1]\nclass = 0", fillcolor="#e78b48"] ;
593 -> 594 ;
595 [label="gini = 0.0\nsamples = 2\nvalue = [0, 2]\nclass = 1", fillcolor="#399de5"] ;
593 -> 595 ;
596 [label="Attendance Rate <= 612.0\ngini = 0.49\nsamples = 21\nvalue = [9, 12]\nclass = 1", fillcolor="#cee6f8"] ;
590 -> 596 ;
597 [label="gini = 0.0\nsamples = 2\nvalue = [2, 0]\nclass = 0", fillcolor="#e58139"] ;
596 -> 597 ;
598 [label="Previous Grades <= 666.0\ngini = 0.465\nsamples = 19\nvalue = [7, 12]\nclass = 1", fillcolor="#acd6f4"] ;
596 -> 598 ;
599 [label="gini = 0.415\nsamples = 17\nvalue = [5, 12]\nclass = 1", fillcolor="#8bc6f0"] ;
598 -> 599 ;
600 [label="gini = 0.0\nsamples = 2\nvalue = [2, 0]\nclass = 0", fillcolor="#e58139"] ;
598 -> 600 ;
601 [label="Attendance Rate <= 626.0\ngini = 0.457\nsamples = 17\nvalue = [6, 11]\nclass = 1", fillcolor="#a5d2f3"] ;
589 -> 601 ;
602 [label="Attendance Rate <= 600.5\ngini = 0.245\nsamples = 7\nvalue = [1, 6]\nclass = 1", fillcolor="#5aade9"] ;
601 -> 602 ;
603 [label="Parent Education Level <= 3.5\ngini = 0.5\nsamples = 2\nvalue = [1, 1]\nclass = 0", fillcolor="#ffffff"] ;
602 -> 603 ;
604 [label="gini = 0.0\nsamples = 1\nvalue = [0, 1]\nclass = 1", fillcolor="#399de5"] ;
603 -> 604 ;
605 [label="gini = 0.0\nsamples = 1\nvalue = [1, 0]\nclass = 0", fillcolor="#e58139"] ;
603 -> 605 ;
606 [label="gini = 0.0\nsamples = 5\nvalue = [0, 5]\nclass = 1", fillcolor="#399de5"] ;
602 -> 606 ;
607 [label="Attendance Rate <= 646.5\ngini = 0.5\nsamples = 10\nvalue = [5, 5]\nclass = 0", fillcolor="#ffffff"] ;
601 -> 607 ;
608 [label="gini = 0.0\nsamples = 4\nvalue = [4, 0]\nclass = 0", fillcolor="#e58139"] ;
607 -> 608 ;
609 [label="Attendance Rate <= 713.0\ngini = 0.278\nsamples = 6\nvalue = [1, 5]\nclass = 1", fillcolor="#61b1ea"] ;
607 -> 609 ;
610 [label="gini = 0.0\nsamples = 5\nvalue = [0, 5]\nclass = 1", fillcolor="#399de5"] ;
609 -> 610 ;
611 [label="gini = 0.0\nsamples = 1\nvalue = [1, 0]\nclass = 0", fillcolor="#e58139"] ;
609 -> 611 ;
612 [label="gini = 0.0\nsamples = 3\nvalue = [3, 0]\nclass = 0", fillcolor="#e58139"] ;
588 -> 612 ;
613 [label="Attendance Rate <= 686.5\ngini = 0.444\nsamples = 81\nvalue = [27, 54]\nclass = 1", fillcolor="#9ccef2"] ;
555 -> 613 ;
614 [label="Attendance Rate <= 664.0\ngini = 0.476\nsamples = 64\nvalue = [25, 39]\nclass = 1", fillcolor="#b8dcf6"] ;
613 -> 614 ;
615 [label="Participation in Extracurricular Activities <= 0.5\ngini = 0.418\nsamples = 47\nvalue = [14, 33]\nclass = 1", fillcolor="#8dc7f0"] ;
614 -> 615 ;
616 [label="Study Hours per Week <= 37.5\ngini = 0.483\nsamples = 22\nvalue = [9, 13]\nclass = 1", fillcolor="#c2e1f7"] ;
615 -> 616 ;
617 [label="Attendance Rate <= 655.5\ngini = 0.5\nsamples = 18\nvalue = [9, 9]\nclass = 0", fillcolor="#ffffff"] ;
616 -> 617 ;
618 [label="Attendance Rate <= 604.0\ngini = 0.459\nsamples = 14\nvalue = [9, 5]\nclass = 0", fillcolor="#f3c7a7"] ;
617 -> 618 ;
619 [label="Attendance Rate <= 589.5\ngini = 0.48\nsamples = 5\nvalue = [2, 3]\nclass = 1", fillcolor="#bddef6"] ;
618 -> 619 ;
620 [label="gini = 0.0\nsamples = 1\nvalue = [0, 1]\nclass = 1", fillcolor="#399de5"] ;
619 -> 620 ;
621 [label="gini = 0.5\nsamples = 4\nvalue = [2, 2]\nclass = 0", fillcolor="#ffffff"] ;
619 -> 621 ;
622 [label="Parent Education Level <= 2.5\ngini = 0.346\nsamples = 9\nvalue = [7, 2]\nclass = 0", fillcolor="#eca572"] ;
618 -> 622 ;
623 [label="gini = 0.0\nsamples = 5\nvalue = [5, 0]\nclass = 0", fillcolor="#e58139"] ;
622 -> 623 ;
624 [label="gini = 0.5\nsamples = 4\nvalue = [2, 2]\nclass = 0", fillcolor="#ffffff"] ;
622 -> 624 ;
625 [label="gini = 0.0\nsamples = 4\nvalue = [0, 4]\nclass = 1", fillcolor="#399de5"] ;
617 -> 625 ;
626 [label="gini = 0.0\nsamples = 4\nvalue = [0, 4]\nclass = 1", fillcolor="#399de5"] ;
616 -> 626 ;
627 [label="Previous Grades <= 682.0\ngini = 0.32\nsamples = 25\nvalue = [5, 20]\nclass = 1", fillcolor="#6ab6ec"] ;
615 -> 627 ;
628 [label="Previous Grades <= 503.0\ngini = 0.236\nsamples = 22\nvalue = [3, 19]\nclass = 1", fillcolor="#58ace9"] ;
627 -> 628 ;
629 [label="Attendance Rate <= 596.0\ngini = 0.42\nsamples = 10\nvalue = [3, 7]\nclass = 1", fillcolor="#8ec7f0"] ;
628 -> 629 ;
630 [label="gini = 0.0\nsamples = 2\nvalue = [2, 0]\nclass = 0", fillcolor="#e58139"] ;
629 -> 630 ;
631 [label="Previous Grades <= 499.0\ngini = 0.219\nsamples = 8\nvalue = [1, 7]\nclass = 1", fillcolor="#55abe9"] ;
629 -> 631 ;
632 [label="gini = 0.0\nsamples = 7\nvalue = [0, 7]\nclass = 1", fillcolor="#399de5"] ;
631 -> 632 ;
633 [label="gini = 0.0\nsamples = 1\nvalue = [1, 0]\nclass = 0", fillcolor="#e58139"] ;
631 -> 633 ;
634 [label="gini = 0.0\nsamples = 12\nvalue = [0, 12]\nclass = 1", fillcolor="#399de5"] ;
628 -> 634 ;
635 [label="Attendance Rate <= 659.0\ngini = 0.444\nsamples = 3\nvalue = [2, 1]\nclass = 0", fillcolor="#f2c09c"] ;
627 -> 635 ;
636 [label="gini = 0.0\nsamples = 2\nvalue = [2, 0]\nclass = 0", fillcolor="#e58139"] ;
635 -> 636 ;
637 [label="gini = 0.0\nsamples = 1\nvalue = [0, 1]\nclass = 1", fillcolor="#399de5"] ;
635 -> 637 ;
638 [label="Study Hours per Week <= 35.5\ngini = 0.457\nsamples = 17\nvalue = [11, 6]\nclass = 0", fillcolor="#f3c6a5"] ;
614 -> 638 ;
639 [label="Parent Education Level <= 2.0\ngini = 0.375\nsamples = 4\nvalue = [1, 3]\nclass = 1", fillcolor="#7bbeee"] ;
638 -> 639 ;
640 [label="gini = 0.0\nsamples = 3\nvalue = [0, 3]\nclass = 1", fillcolor="#399de5"] ;
639 -> 640 ;
641 [label="gini = 0.0\nsamples = 1\nvalue = [1, 0]\nclass = 0", fillcolor="#e58139"] ;
639 -> 641 ;
642 [label="Previous Grades <= 650.0\ngini = 0.355\nsamples = 13\nvalue = [10, 3]\nclass = 0", fillcolor="#eda774"] ;
638 -> 642 ;
643 [label="Previous Grades <= 560.5\ngini = 0.278\nsamples = 12\nvalue = [10, 2]\nclass = 0", fillcolor="#ea9a61"] ;
642 -> 643 ;
644 [label="Attendance Rate <= 679.5\ngini = 0.444\nsamples = 6\nvalue = [4, 2]\nclass = 0", fillcolor="#f2c09c"] ;
643 -> 644 ;
645 [label="Attendance Rate <= 672.0\ngini = 0.444\nsamples = 3\nvalue = [1, 2]\nclass = 1", fillcolor="#9ccef2"] ;
644 -> 645 ;
646 [label="gini = 0.0\nsamples = 1\nvalue = [1, 0]\nclass = 0", fillcolor="#e58139"] ;
645 -> 646 ;
647 [label="gini = 0.0\nsamples = 2\nvalue = [0, 2]\nclass = 1", fillcolor="#399de5"] ;
645 -> 647 ;
648 [label="gini = 0.0\nsamples = 3\nvalue = [3, 0]\nclass = 0", fillcolor="#e58139"] ;
644 -> 648 ;
649 [label="gini = 0.0\nsamples = 6\nvalue = [6, 0]\nclass = 0", fillcolor="#e58139"] ;
643 -> 649 ;
650 [label="gini = 0.0\nsamples = 1\nvalue = [0, 1]\nclass = 1", fillcolor="#399de5"] ;
642 -> 650 ;
651 [label="Attendance Rate <= 714.0\ngini = 0.208\nsamples = 17\nvalue = [2, 15]\nclass = 1", fillcolor="#53aae8"] ;
613 -> 651 ;
652 [label="gini = 0.0\nsamples = 13\nvalue = [0, 13]\nclass = 1", fillcolor="#399de5"] ;
651 -> 652 ;
653 [label="Attendance Rate <= 718.5\ngini = 0.5\nsamples = 4\nvalue = [2, 2]\nclass = 0", fillcolor="#ffffff"] ;
651 -> 653 ;
654 [label="gini = 0.0\nsamples = 2\nvalue = [2, 0]\nclass = 0", fillcolor="#e58139"] ;
653 -> 654 ;
655 [label="gini = 0.0\nsamples = 2\nvalue = [0, 2]\nclass = 1", fillcolor="#399de5"] ;
653 -> 655 ;
656 [label="Previous Grades <= 569.5\ngini = 0.476\nsamples = 23\nvalue = [14, 9]\nclass = 0", fillcolor="#f6d2b8"] ;
554 -> 656 ;
657 [label="Previous Grades <= 508.0\ngini = 0.5\nsamples = 18\nvalue = [9, 9]\nclass = 0", fillcolor="#ffffff"] ;
656 -> 657 ;
658 [label="Parent Education Level <= 0.5\ngini = 0.219\nsamples = 8\nvalue = [7, 1]\nclass = 0", fillcolor="#e99355"] ;
657 -> 658 ;
659 [label="Attendance Rate <= 699.0\ngini = 0.444\nsamples = 3\nvalue = [2, 1]\nclass = 0", fillcolor="#f2c09c"] ;
658 -> 659 ;
660 [label="gini = 0.0\nsamples = 1\nvalue = [0, 1]\nclass = 1", fillcolor="#399de5"] ;
659 -> 660 ;
661 [label="gini = 0.0\nsamples = 2\nvalue = [2, 0]\nclass = 0", fillcolor="#e58139"] ;
659 -> 661 ;
662 [label="gini = 0.0\nsamples = 5\nvalue = [5, 0]\nclass = 0", fillcolor="#e58139"] ;
658 -> 662 ;
663 [label="Attendance Rate <= 657.5\ngini = 0.32\nsamples = 10\nvalue = [2, 8]\nclass = 1", fillcolor="#6ab6ec"] ;
657 -> 663 ;
664 [label="Previous Grades <= 546.0\ngini = 0.5\nsamples = 4\nvalue = [2, 2]\nclass = 0", fillcolor="#ffffff"] ;
663 -> 664 ;
665 [label="gini = 0.0\nsamples = 2\nvalue = [0, 2]\nclass = 1", fillcolor="#399de5"] ;
664 -> 665 ;
666 [label="gini = 0.0\nsamples = 2\nvalue = [2, 0]\nclass = 0", fillcolor="#e58139"] ;
664 -> 666 ;
667 [label="gini = 0.0\nsamples = 6\nvalue = [0, 6]\nclass = 1", fillcolor="#399de5"] ;
663 -> 667 ;
668 [label="gini = 0.0\nsamples = 5\nvalue = [5, 0]\nclass = 0", fillcolor="#e58139"] ;
656 -> 668 ;
669 [label="Attendance Rate <= 600.0\ngini = 0.278\nsamples = 12\nvalue = [2, 10]\nclass = 1", fillcolor="#61b1ea"] ;
553 -> 669 ;
670 [label="gini = 0.0\nsamples = 1\nvalue = [1, 0]\nclass = 0", fillcolor="#e58139"] ;
669 -> 670 ;
671 [label="Previous Grades <= 712.0\ngini = 0.165\nsamples = 11\nvalue = [1, 10]\nclass = 1", fillcolor="#4da7e8"] ;
669 -> 671 ;
672 [label="gini = 0.0\nsamples = 8\nvalue = [0, 8]\nclass = 1", fillcolor="#399de5"] ;
671 -> 672 ;
673 [label="Previous Grades <= 716.0\ngini = 0.444\nsamples = 3\nvalue = [1, 2]\nclass = 1", fillcolor="#9ccef2"] ;
671 -> 673 ;
674 [label="gini = 0.0\nsamples = 1\nvalue = [1, 0]\nclass = 0", fillcolor="#e58139"] ;
673 -> 674 ;
675 [label="gini = 0.0\nsamples = 2\nvalue = [0, 2]\nclass = 1", fillcolor="#399de5"] ;
673 -> 675 ;
676 [label="gini = 0.0\nsamples = 7\nvalue = [0, 7]\nclass = 1", fillcolor="#399de5"] ;
356 -> 676 ;
677 [label="Attendance Rate <= 728.5\ngini = 0.499\nsamples = 204\nvalue = [106, 98]\nclass = 0", fillcolor="#fdf5f0"] ;
355 -> 677 ;
678 [label="gini = 0.0\nsamples = 6\nvalue = [6, 0]\nclass = 0", fillcolor="#e58139"] ;
677 -> 678 ;
679 [label="Parent Education Level <= 1.5\ngini = 0.5\nsamples = 198\nvalue = [100, 98]\nclass = 0", fillcolor="#fefcfb"] ;
677 -> 679 ;
680 [label="Previous Grades <= 543.5\ngini = 0.49\nsamples = 79\nvalue = [45, 34]\nclass = 0", fillcolor="#f9e0cf"] ;
679 -> 680 ;
681 [label="Attendance Rate <= 751.5\ngini = 0.45\nsamples = 38\nvalue = [13, 25]\nclass = 1", fillcolor="#a0d0f3"] ;
680 -> 681 ;
682 [label="Attendance Rate <= 737.0\ngini = 0.5\nsamples = 14\nvalue = [7, 7]\nclass = 0", fillcolor="#ffffff"] ;
681 -> 682 ;
683 [label="Study Hours per Week <= 11.5\ngini = 0.375\nsamples = 8\nvalue = [2, 6]\nclass = 1", fillcolor="#7bbeee"] ;
682 -> 683 ;
684 [label="gini = 0.0\nsamples = 1\nvalue = [1, 0]\nclass = 0", fillcolor="#e58139"] ;
683 -> 684 ;
685 [label="Previous Grades <= 424.0\ngini = 0.245\nsamples = 7\nvalue = [1, 6]\nclass = 1", fillcolor="#5aade9"] ;
683 -> 685 ;
686 [label="gini = 0.0\nsamples = 1\nvalue = [1, 0]\nclass = 0", fillcolor="#e58139"] ;
685 -> 686 ;
687 [label="gini = 0.0\nsamples = 6\nvalue = [0, 6]\nclass = 1", fillcolor="#399de5"] ;
685 -> 687 ;
688 [label="Study Hours per Week <= 34.5\ngini = 0.278\nsamples = 6\nvalue = [5, 1]\nclass = 0", fillcolor="#ea9a61"] ;
682 -> 688 ;
689 [label="gini = 0.0\nsamples = 5\nvalue = [5, 0]\nclass = 0", fillcolor="#e58139"] ;
688 -> 689 ;
690 [label="gini = 0.0\nsamples = 1\nvalue = [0, 1]\nclass = 1", fillcolor="#399de5"] ;
688 -> 690 ;
691 [label="Study Hours per Week <= 35.5\ngini = 0.375\nsamples = 24\nvalue = [6, 18]\nclass = 1", fillcolor="#7bbeee"] ;
681 -> 691 ;
692 [label="Previous Grades <= 495.0\ngini = 0.117\nsamples = 16\nvalue = [1, 15]\nclass = 1", fillcolor="#46a4e7"] ;
691 -> 692 ;
693 [label="gini = 0.0\nsamples = 10\nvalue = [0, 10]\nclass = 1", fillcolor="#399de5"] ;
692 -> 693 ;
694 [label="Previous Grades <= 498.0\ngini = 0.278\nsamples = 6\nvalue = [1, 5]\nclass = 1", fillcolor="#61b1ea"] ;
692 -> 694 ;
695 [label="gini = 0.0\nsamples = 1\nvalue = [1, 0]\nclass = 0", fillcolor="#e58139"] ;
694 -> 695 ;
696 [label="gini = 0.0\nsamples = 5\nvalue = [0, 5]\nclass = 1", fillcolor="#399de5"] ;
694 -> 696 ;
697 [label="Previous Grades <= 459.0\ngini = 0.469\nsamples = 8\nvalue = [5, 3]\nclass = 0", fillcolor="#f5cdb0"] ;
691 -> 697 ;
698 [label="Attendance Rate <= 806.0\ngini = 0.48\nsamples = 5\nvalue = [2, 3]\nclass = 1", fillcolor="#bddef6"] ;
697 -> 698 ;
699 [label="gini = 0.0\nsamples = 2\nvalue = [0, 2]\nclass = 1", fillcolor="#399de5"] ;
698 -> 699 ;
700 [label="Parent Education Level <= 0.5\ngini = 0.444\nsamples = 3\nvalue = [2, 1]\nclass = 0", fillcolor="#f2c09c"] ;
698 -> 700 ;
701 [label="gini = 0.0\nsamples = 2\nvalue = [2, 0]\nclass = 0", fillcolor="#e58139"] ;
700 -> 701 ;
702 [label="gini = 0.0\nsamples = 1\nvalue = [0, 1]\nclass = 1", fillcolor="#399de5"] ;
700 -> 702 ;
703 [label="gini = 0.0\nsamples = 3\nvalue = [3, 0]\nclass = 0", fillcolor="#e58139"] ;
697 -> 703 ;
704 [label="Attendance Rate <= 803.0\ngini = 0.343\nsamples = 41\nvalue = [32, 9]\nclass = 0", fillcolor="#eca471"] ;
680 -> 704 ;
705 [label="Attendance Rate <= 752.5\ngini = 0.238\nsamples = 29\nvalue = [25, 4]\nclass = 0", fillcolor="#e99559"] ;
704 -> 705 ;
706 [label="Attendance Rate <= 743.5\ngini = 0.463\nsamples = 11\nvalue = [7, 4]\nclass = 0", fillcolor="#f4c9aa"] ;
705 -> 706 ;
707 [label="Previous Grades <= 684.5\ngini = 0.219\nsamples = 8\nvalue = [7, 1]\nclass = 0", fillcolor="#e99355"] ;
706 -> 707 ;
708 [label="gini = 0.0\nsamples = 5\nvalue = [5, 0]\nclass = 0", fillcolor="#e58139"] ;
707 -> 708 ;
709 [label="Previous Grades <= 697.5\ngini = 0.444\nsamples = 3\nvalue = [2, 1]\nclass = 0", fillcolor="#f2c09c"] ;
707 -> 709 ;
710 [label="gini = 0.0\nsamples = 1\nvalue = [0, 1]\nclass = 1", fillcolor="#399de5"] ;
709 -> 710 ;
711 [label="gini = 0.0\nsamples = 2\nvalue = [2, 0]\nclass = 0", fillcolor="#e58139"] ;
709 -> 711 ;
712 [label="gini = 0.0\nsamples = 3\nvalue = [0, 3]\nclass = 1", fillcolor="#399de5"] ;
706 -> 712 ;
713 [label="gini = 0.0\nsamples = 18\nvalue = [18, 0]\nclass = 0", fillcolor="#e58139"] ;
705 -> 713 ;
714 [label="Previous Grades <= 616.0\ngini = 0.486\nsamples = 12\nvalue = [7, 5]\nclass = 0", fillcolor="#f8dbc6"] ;
704 -> 714 ;
715 [label="Attendance Rate <= 808.0\ngini = 0.375\nsamples = 8\nvalue = [6, 2]\nclass = 0", fillcolor="#eeab7b"] ;
714 -> 715 ;
716 [label="Parent Education Level <= 0.5\ngini = 0.444\nsamples = 3\nvalue = [1, 2]\nclass = 1", fillcolor="#9ccef2"] ;
715 -> 716 ;
717 [label="gini = 0.0\nsamples = 2\nvalue = [0, 2]\nclass = 1", fillcolor="#399de5"] ;
716 -> 717 ;
718 [label="gini = 0.0\nsamples = 1\nvalue = [1, 0]\nclass = 0", fillcolor="#e58139"] ;
716 -> 718 ;
719 [label="gini = 0.0\nsamples = 5\nvalue = [5, 0]\nclass = 0", fillcolor="#e58139"] ;
715 -> 719 ;
720 [label="Previous Grades <= 690.5\ngini = 0.375\nsamples = 4\nvalue = [1, 3]\nclass = 1", fillcolor="#7bbeee"] ;
714 -> 720 ;
721 [label="gini = 0.0\nsamples = 3\nvalue = [0, 3]\nclass = 1", fillcolor="#399de5"] ;
720 -> 721 ;
722 [label="gini = 0.0\nsamples = 1\nvalue = [1, 0]\nclass = 0", fillcolor="#e58139"] ;
720 -> 722 ;
723 [label="Previous Grades <= 445.5\ngini = 0.497\nsamples = 119\nvalue = [55, 64]\nclass = 1", fillcolor="#e3f1fb"] ;
679 -> 723 ;
724 [label="Previous Grades <= 417.0\ngini = 0.403\nsamples = 25\nvalue = [18, 7]\nclass = 0", fillcolor="#efb286"] ;
723 -> 724 ;
725 [label="Attendance Rate <= 769.5\ngini = 0.444\nsamples = 6\nvalue = [2, 4]\nclass = 1", fillcolor="#9ccef2"] ;
724 -> 725 ;
726 [label="Attendance Rate <= 743.5\ngini = 0.444\nsamples = 3\nvalue = [2, 1]\nclass = 0", fillcolor="#f2c09c"] ;
725 -> 726 ;
727 [label="gini = 0.0\nsamples = 1\nvalue = [0, 1]\nclass = 1", fillcolor="#399de5"] ;
726 -> 727 ;
728 [label="gini = 0.0\nsamples = 2\nvalue = [2, 0]\nclass = 0", fillcolor="#e58139"] ;
726 -> 728 ;
729 [label="gini = 0.0\nsamples = 3\nvalue = [0, 3]\nclass = 1", fillcolor="#399de5"] ;
725 -> 729 ;
730 [label="Attendance Rate <= 828.0\ngini = 0.266\nsamples = 19\nvalue = [16, 3]\nclass = 0", fillcolor="#ea995e"] ;
724 -> 730 ;
731 [label="Attendance Rate <= 771.0\ngini = 0.198\nsamples = 18\nvalue = [16, 2]\nclass = 0", fillcolor="#e89152"] ;
730 -> 731 ;
732 [label="Study Hours per Week <= 4.5\ngini = 0.408\nsamples = 7\nvalue = [5, 2]\nclass = 0", fillcolor="#efb388"] ;
731 -> 732 ;
733 [label="gini = 0.0\nsamples = 1\nvalue = [0, 1]\nclass = 1", fillcolor="#399de5"] ;
732 -> 733 ;
734 [label="Attendance Rate <= 766.0\ngini = 0.278\nsamples = 6\nvalue = [5, 1]\nclass = 0", fillcolor="#ea9a61"] ;
732 -> 734 ;
735 [label="gini = 0.0\nsamples = 5\nvalue = [5, 0]\nclass = 0", fillcolor="#e58139"] ;
734 -> 735 ;
736 [label="gini = 0.0\nsamples = 1\nvalue = [0, 1]\nclass = 1", fillcolor="#399de5"] ;
734 -> 736 ;
737 [label="gini = 0.0\nsamples = 11\nvalue = [11, 0]\nclass = 0", fillcolor="#e58139"] ;
731 -> 737 ;
738 [label="gini = 0.0\nsamples = 1\nvalue = [0, 1]\nclass = 1", fillcolor="#399de5"] ;
730 -> 738 ;
739 [label="Attendance Rate <= 830.5\ngini = 0.477\nsamples = 94\nvalue = [37, 57]\nclass = 1", fillcolor="#baddf6"] ;
723 -> 739 ;
740 [label="Attendance Rate <= 757.5\ngini = 0.461\nsamples = 86\nvalue = [31, 55]\nclass = 1", fillcolor="#a9d4f4"] ;
739 -> 740 ;
741 [label="Attendance Rate <= 754.0\ngini = 0.5\nsamples = 22\nvalue = [11, 11]\nclass = 0", fillcolor="#ffffff"] ;
740 -> 741 ;
742 [label="Previous Grades <= 667.5\ngini = 0.488\nsamples = 19\nvalue = [8, 11]\nclass = 1", fillcolor="#c9e4f8"] ;
741 -> 742 ;
743 [label="Study Hours per Week <= 18.0\ngini = 0.457\nsamples = 17\nvalue = [6, 11]\nclass = 1", fillcolor="#a5d2f3"] ;
742 -> 743 ;
744 [label="gini = 0.0\nsamples = 2\nvalue = [0, 2]\nclass = 1", fillcolor="#399de5"] ;
743 -> 744 ;
745 [label="Study Hours per Week <= 21.5\ngini = 0.48\nsamples = 15\nvalue = [6, 9]\nclass = 1", fillcolor="#bddef6"] ;
743 -> 745 ;
746 [label="gini = 0.0\nsamples = 2\nvalue = [2, 0]\nclass = 0", fillcolor="#e58139"] ;
745 -> 746 ;
747 [label="Previous Grades <= 629.5\ngini = 0.426\nsamples = 13\nvalue = [4, 9]\nclass = 1", fillcolor="#91c9f1"] ;
745 -> 747 ;
748 [label="Study Hours per Week <= 33.0\ngini = 0.375\nsamples = 12\nvalue = [3, 9]\nclass = 1", fillcolor="#7bbeee"] ;
747 -> 748 ;
749 [label="gini = 0.0\nsamples = 4\nvalue = [0, 4]\nclass = 1", fillcolor="#399de5"] ;
748 -> 749 ;
750 [label="Previous Grades <= 489.0\ngini = 0.469\nsamples = 8\nvalue = [3, 5]\nclass = 1", fillcolor="#b0d8f5"] ;
748 -> 750 ;
751 [label="gini = 0.0\nsamples = 2\nvalue = [2, 0]\nclass = 0", fillcolor="#e58139"] ;
750 -> 751 ;
752 [label="Attendance Rate <= 741.5\ngini = 0.278\nsamples = 6\nvalue = [1, 5]\nclass = 1", fillcolor="#61b1ea"] ;
750 -> 752 ;
753 [label="gini = 0.0\nsamples = 4\nvalue = [0, 4]\nclass = 1", fillcolor="#399de5"] ;
752 -> 753 ;
754 [label="gini = 0.5\nsamples = 2\nvalue = [1, 1]\nclass = 0", fillcolor="#ffffff"] ;
752 -> 754 ;
755 [label="gini = 0.0\nsamples = 1\nvalue = [1, 0]\nclass = 0", fillcolor="#e58139"] ;
747 -> 755 ;
756 [label="gini = 0.0\nsamples = 2\nvalue = [2, 0]\nclass = 0", fillcolor="#e58139"] ;
742 -> 756 ;
757 [label="gini = 0.0\nsamples = 3\nvalue = [3, 0]\nclass = 0", fillcolor="#e58139"] ;
741 -> 757 ;
758 [label="Attendance Rate <= 762.5\ngini = 0.43\nsamples = 64\nvalue = [20, 44]\nclass = 1", fillcolor="#93caf1"] ;
740 -> 758 ;
759 [label="gini = 0.0\nsamples = 6\nvalue = [0, 6]\nclass = 1", fillcolor="#399de5"] ;
758 -> 759 ;
760 [label="Attendance Rate <= 767.5\ngini = 0.452\nsamples = 58\nvalue = [20, 38]\nclass = 1", fillcolor="#a1d1f3"] ;
758 -> 760 ;
761 [label="gini = 0.0\nsamples = 3\nvalue = [3, 0]\nclass = 0", fillcolor="#e58139"] ;
760 -> 761 ;
762 [label="Attendance Rate <= 773.5\ngini = 0.427\nsamples = 55\nvalue = [17, 38]\nclass = 1", fillcolor="#92c9f1"] ;
760 -> 762 ;
763 [label="gini = 0.0\nsamples = 6\nvalue = [0, 6]\nclass = 1", fillcolor="#399de5"] ;
762 -> 763 ;
764 [label="Attendance Rate <= 778.0\ngini = 0.453\nsamples = 49\nvalue = [17, 32]\nclass = 1", fillcolor="#a2d1f3"] ;
762 -> 764 ;
765 [label="gini = 0.0\nsamples = 3\nvalue = [3, 0]\nclass = 0", fillcolor="#e58139"] ;
764 -> 765 ;
766 [label="Attendance Rate <= 799.5\ngini = 0.423\nsamples = 46\nvalue = [14, 32]\nclass = 1", fillcolor="#90c8f0"] ;
764 -> 766 ;
767 [label="Study Hours per Week <= 10.5\ngini = 0.278\nsamples = 18\nvalue = [3, 15]\nclass = 1", fillcolor="#61b1ea"] ;
766 -> 767 ;
768 [label="gini = 0.0\nsamples = 1\nvalue = [1, 0]\nclass = 0", fillcolor="#e58139"] ;
767 -> 768 ;
769 [label="Attendance Rate <= 788.5\ngini = 0.208\nsamples = 17\nvalue = [2, 15]\nclass = 1", fillcolor="#53aae8"] ;
767 -> 769 ;
770 [label="Participation in Extracurricular Activities <= 0.5\ngini = 0.375\nsamples = 8\nvalue = [2, 6]\nclass = 1", fillcolor="#7bbeee"] ;
769 -> 770 ;
771 [label="gini = 0.48\nsamples = 5\nvalue = [2, 3]\nclass = 1", fillcolor="#bddef6"] ;
770 -> 771 ;
772 [label="gini = 0.0\nsamples = 3\nvalue = [0, 3]\nclass = 1", fillcolor="#399de5"] ;
770 -> 772 ;
773 [label="gini = 0.0\nsamples = 9\nvalue = [0, 9]\nclass = 1", fillcolor="#399de5"] ;
769 -> 773 ;
774 [label="Attendance Rate <= 814.5\ngini = 0.477\nsamples = 28\nvalue = [11, 17]\nclass = 1", fillcolor="#b9dcf6"] ;
766 -> 774 ;
775 [label="Study Hours per Week <= 33.5\ngini = 0.492\nsamples = 16\nvalue = [9, 7]\nclass = 0", fillcolor="#f9e3d3"] ;
774 -> 775 ;
776 [label="Previous Grades <= 632.0\ngini = 0.444\nsamples = 9\nvalue = [3, 6]\nclass = 1", fillcolor="#9ccef2"] ;
775 -> 776 ;
777 [label="gini = 0.245\nsamples = 7\nvalue = [1, 6]\nclass = 1", fillcolor="#5aade9"] ;
776 -> 777 ;
778 [label="gini = 0.0\nsamples = 2\nvalue = [2, 0]\nclass = 0", fillcolor="#e58139"] ;
776 -> 778 ;
779 [label="Study Hours per Week <= 38.0\ngini = 0.245\nsamples = 7\nvalue = [6, 1]\nclass = 0", fillcolor="#e9965a"] ;
775 -> 779 ;
780 [label="gini = 0.0\nsamples = 5\nvalue = [5, 0]\nclass = 0", fillcolor="#e58139"] ;
779 -> 780 ;
781 [label="gini = 0.5\nsamples = 2\nvalue = [1, 1]\nclass = 0", fillcolor="#ffffff"] ;
779 -> 781 ;
782 [label="Study Hours per Week <= 16.0\ngini = 0.278\nsamples = 12\nvalue = [2, 10]\nclass = 1", fillcolor="#61b1ea"] ;
774 -> 782 ;
783 [label="Participation in Extracurricular Activities <= 0.5\ngini = 0.444\nsamples = 3\nvalue = [2, 1]\nclass = 0", fillcolor="#f2c09c"] ;
782 -> 783 ;
784 [label="gini = 0.0\nsamples = 2\nvalue = [2, 0]\nclass = 0", fillcolor="#e58139"] ;
783 -> 784 ;
785 [label="gini = 0.0\nsamples = 1\nvalue = [0, 1]\nclass = 1", fillcolor="#399de5"] ;
783 -> 785 ;
786 [label="gini = 0.0\nsamples = 9\nvalue = [0, 9]\nclass = 1", fillcolor="#399de5"] ;
782 -> 786 ;
787 [label="Previous Grades <= 628.5\ngini = 0.375\nsamples = 8\nvalue = [6, 2]\nclass = 0", fillcolor="#eeab7b"] ;
739 -> 787 ;
788 [label="gini = 0.0\nsamples = 6\nvalue = [6, 0]\nclass = 0", fillcolor="#e58139"] ;
787 -> 788 ;
789 [label="gini = 0.0\nsamples = 2\nvalue = [0, 2]\nclass = 1", fillcolor="#399de5"] ;
787 -> 789 ;
790 [label="Parent Education Level <= 1.5\ngini = 0.386\nsamples = 23\nvalue = [6, 17]\nclass = 1", fillcolor="#7fc0ee"] ;
4 -> 790 ;
791 [label="gini = 0.0\nsamples = 6\nvalue = [0, 6]\nclass = 1", fillcolor="#399de5"] ;
790 -> 791 ;
792 [label="Study Hours per Week <= 15.0\ngini = 0.457\nsamples = 17\nvalue = [6, 11]\nclass = 1", fillcolor="#a5d2f3"] ;
790 -> 792 ;
793 [label="Study Hours per Week <= 8.5\ngini = 0.375\nsamples = 4\nvalue = [3, 1]\nclass = 0", fillcolor="#eeab7b"] ;
792 -> 793 ;
794 [label="gini = 0.0\nsamples = 1\nvalue = [0, 1]\nclass = 1", fillcolor="#399de5"] ;
793 -> 794 ;
795 [label="gini = 0.0\nsamples = 3\nvalue = [3, 0]\nclass = 0", fillcolor="#e58139"] ;
793 -> 795 ;
796 [label="Attendance Rate <= 848.0\ngini = 0.355\nsamples = 13\nvalue = [3, 10]\nclass = 1", fillcolor="#74baed"] ;
792 -> 796 ;
797 [label="gini = 0.0\nsamples = 8\nvalue = [0, 8]\nclass = 1", fillcolor="#399de5"] ;
796 -> 797 ;
798 [label="Participation in Extracurricular Activities <= 0.5\ngini = 0.48\nsamples = 5\nvalue = [3, 2]\nclass = 0", fillcolor="#f6d5bd"] ;
796 -> 798 ;
799 [label="gini = 0.0\nsamples = 2\nvalue = [2, 0]\nclass = 0", fillcolor="#e58139"] ;
798 -> 799 ;
800 [label="Attendance Rate <= 850.0\ngini = 0.444\nsamples = 3\nvalue = [1, 2]\nclass = 1", fillcolor="#9ccef2"] ;
798 -> 800 ;
801 [label="gini = 0.0\nsamples = 1\nvalue = [1, 0]\nclass = 0", fillcolor="#e58139"] ;
800 -> 801 ;
802 [label="gini = 0.0\nsamples = 2\nvalue = [0, 2]\nclass = 1", fillcolor="#399de5"] ;
800 -> 802 ;
803 [label="Parent Education Level <= 0.5\ngini = 0.483\nsamples = 334\nvalue = [136, 198]\nclass = 1", fillcolor="#c1e0f7"] ;
3 -> 803 ;
804 [label="Previous Grades <= 633.0\ngini = 0.499\nsamples = 58\nvalue = [30, 28]\nclass = 0", fillcolor="#fdf7f2"] ;
803 -> 804 ;
805 [label="Attendance Rate <= 532.0\ngini = 0.499\nsamples = 54\nvalue = [26, 28]\nclass = 1", fillcolor="#f1f8fd"] ;
804 -> 805 ;
806 [label="Attendance Rate <= 448.0\ngini = 0.434\nsamples = 22\nvalue = [7, 15]\nclass = 1", fillcolor="#95cbf1"] ;
805 -> 806 ;
807 [label="Previous Grades <= 586.0\ngini = 0.49\nsamples = 14\nvalue = [6, 8]\nclass = 1", fillcolor="#cee6f8"] ;
806 -> 807 ;
808 [label="Attendance Rate <= 383.0\ngini = 0.5\nsamples = 12\nvalue = [6, 6]\nclass = 0", fillcolor="#ffffff"] ;
807 -> 808 ;
809 [label="Previous Grades <= 542.0\ngini = 0.408\nsamples = 7\nvalue = [2, 5]\nclass = 1", fillcolor="#88c4ef"] ;
808 -> 809 ;
810 [label="Attendance Rate <= 291.5\ngini = 0.278\nsamples = 6\nvalue = [1, 5]\nclass = 1", fillcolor="#61b1ea"] ;
809 -> 810 ;
811 [label="Previous Grades <= 485.5\ngini = 0.444\nsamples = 3\nvalue = [1, 2]\nclass = 1", fillcolor="#9ccef2"] ;
810 -> 811 ;
812 [label="gini = 0.0\nsamples = 1\nvalue = [1, 0]\nclass = 0", fillcolor="#e58139"] ;
811 -> 812 ;
813 [label="gini = 0.0\nsamples = 2\nvalue = [0, 2]\nclass = 1", fillcolor="#399de5"] ;
811 -> 813 ;
814 [label="gini = 0.0\nsamples = 3\nvalue = [0, 3]\nclass = 1", fillcolor="#399de5"] ;
810 -> 814 ;
815 [label="gini = 0.0\nsamples = 1\nvalue = [1, 0]\nclass = 0", fillcolor="#e58139"] ;
809 -> 815 ;
816 [label="Previous Grades <= 410.0\ngini = 0.32\nsamples = 5\nvalue = [4, 1]\nclass = 0", fillcolor="#eca06a"] ;
808 -> 816 ;
817 [label="Previous Grades <= 330.5\ngini = 0.5\nsamples = 2\nvalue = [1, 1]\nclass = 0", fillcolor="#ffffff"] ;
816 -> 817 ;
818 [label="gini = 0.0\nsamples = 1\nvalue = [1, 0]\nclass = 0", fillcolor="#e58139"] ;
817 -> 818 ;
819 [label="gini = 0.0\nsamples = 1\nvalue = [0, 1]\nclass = 1", fillcolor="#399de5"] ;
817 -> 819 ;
820 [label="gini = 0.0\nsamples = 3\nvalue = [3, 0]\nclass = 0", fillcolor="#e58139"] ;
816 -> 820 ;
821 [label="gini = 0.0\nsamples = 2\nvalue = [0, 2]\nclass = 1", fillcolor="#399de5"] ;
807 -> 821 ;
822 [label="Previous Grades <= 534.0\ngini = 0.219\nsamples = 8\nvalue = [1, 7]\nclass = 1", fillcolor="#55abe9"] ;
806 -> 822 ;
823 [label="gini = 0.0\nsamples = 6\nvalue = [0, 6]\nclass = 1", fillcolor="#399de5"] ;
822 -> 823 ;
824 [label="Attendance Rate <= 506.0\ngini = 0.5\nsamples = 2\nvalue = [1, 1]\nclass = 0", fillcolor="#ffffff"] ;
822 -> 824 ;
825 [label="gini = 0.0\nsamples = 1\nvalue = [1, 0]\nclass = 0", fillcolor="#e58139"] ;
824 -> 825 ;
826 [label="gini = 0.0\nsamples = 1\nvalue = [0, 1]\nclass = 1", fillcolor="#399de5"] ;
824 -> 826 ;
827 [label="Study Hours per Week <= 42.5\ngini = 0.482\nsamples = 32\nvalue = [19, 13]\nclass = 0", fillcolor="#f7d7c0"] ;
805 -> 827 ;
828 [label="Attendance Rate <= 715.0\ngini = 0.495\nsamples = 20\nvalue = [9, 11]\nclass = 1", fillcolor="#dbedfa"] ;
827 -> 828 ;
829 [label="Attendance Rate <= 671.5\ngini = 0.463\nsamples = 11\nvalue = [7, 4]\nclass = 0", fillcolor="#f4c9aa"] ;
828 -> 829 ;
830 [label="Attendance Rate <= 588.0\ngini = 0.49\nsamples = 7\nvalue = [3, 4]\nclass = 1", fillcolor="#cee6f8"] ;
829 -> 830 ;
831 [label="Attendance Rate <= 567.5\ngini = 0.375\nsamples = 4\nvalue = [3, 1]\nclass = 0", fillcolor="#eeab7b"] ;
830 -> 831 ;
832 [label="Attendance Rate <= 550.5\ngini = 0.5\nsamples = 2\nvalue = [1, 1]\nclass = 0", fillcolor="#ffffff"] ;
831 -> 832 ;
833 [label="gini = 0.0\nsamples = 1\nvalue = [1, 0]\nclass = 0", fillcolor="#e58139"] ;
832 -> 833 ;
834 [label="gini = 0.0\nsamples = 1\nvalue = [0, 1]\nclass = 1", fillcolor="#399de5"] ;
832 -> 834 ;
835 [label="gini = 0.0\nsamples = 2\nvalue = [2, 0]\nclass = 0", fillcolor="#e58139"] ;
831 -> 835 ;
836 [label="gini = 0.0\nsamples = 3\nvalue = [0, 3]\nclass = 1", fillcolor="#399de5"] ;
830 -> 836 ;
837 [label="gini = 0.0\nsamples = 4\nvalue = [4, 0]\nclass = 0", fillcolor="#e58139"] ;
829 -> 837 ;
838 [label="Attendance Rate <= 751.0\ngini = 0.346\nsamples = 9\nvalue = [2, 7]\nclass = 1", fillcolor="#72b9ec"] ;
828 -> 838 ;
839 [label="gini = 0.0\nsamples = 5\nvalue = [0, 5]\nclass = 1", fillcolor="#399de5"] ;
